<?xml version="1.0"?>
<MethodSetup Method="MLP::MLPBNN">
  <GeneralInfo>
    <Info name="TMVA Release" value="4.1.3 [262403]"/>
    <Info name="ROOT Release" value="5.34/00 [336384]"/>
    <Info name="Creator" value="gavrilov"/>
    <Info name="Date" value="Sun Oct 27 13:07:43 2013"/>
    <Info name="Host" value="Linux okpccms281.cern.ch 2.6.32-279.el6.x86_64 #1 SMP Thu Jun 21 10:37:09 CEST 2012 x86_64 x86_64 x86_64 GNU/Linux"/>
    <Info name="Dir" value="/home/scratch/ZEWKANA/DY_QG"/>
    <Info name="Training events" value="34355"/>
    <Info name="TrainingTime" value="5.25725576e+02"/>
    <Info name="AnalysisType" value="Classification"/>
  </GeneralInfo>
  <Options>
    <Option name="NCycles" modified="Yes">600</Option>
    <Option name="HiddenLayers" modified="Yes">N+5</Option>
    <Option name="NeuronType" modified="Yes">tanh</Option>
    <Option name="RandomSeed" modified="No">1</Option>
    <Option name="EstimatorType" modified="No">MSE</Option>
    <Option name="NeuronInputType" modified="No">sum</Option>
    <Option name="V" modified="Yes">False</Option>
    <Option name="VerbosityLevel" modified="No">Default</Option>
    <Option name="VarTransform" modified="Yes">N</Option>
    <Option name="H" modified="Yes">True</Option>
    <Option name="CreateMVAPdfs" modified="No">False</Option>
    <Option name="IgnoreNegWeightsInTraining" modified="No">False</Option>
    <Option name="TrainingMethod" modified="Yes">BFGS</Option>
    <Option name="LearningRate" modified="No">2.000000e-02</Option>
    <Option name="DecayRate" modified="No">1.000000e-02</Option>
    <Option name="TestRate" modified="Yes">5</Option>
    <Option name="EpochMonitoring" modified="No">False</Option>
    <Option name="Sampling" modified="No">1.000000e+00</Option>
    <Option name="SamplingEpoch" modified="No">1.000000e+00</Option>
    <Option name="SamplingImportance" modified="No">1.000000e+00</Option>
    <Option name="SamplingTraining" modified="No">True</Option>
    <Option name="SamplingTesting" modified="No">False</Option>
    <Option name="ResetStep" modified="No">50</Option>
    <Option name="Tau" modified="No">3.000000e+00</Option>
    <Option name="BPMode" modified="No">sequential</Option>
    <Option name="BatchSize" modified="No">-1</Option>
    <Option name="ConvergenceImprove" modified="No">1.000000e-30</Option>
    <Option name="ConvergenceTests" modified="No">-1</Option>
    <Option name="UseRegulator" modified="Yes">True</Option>
    <Option name="UpdateLimit" modified="No">10000</Option>
    <Option name="CalculateErrors" modified="No">False</Option>
    <Option name="WeightRange" modified="No">1.000000e+00</Option>
  </Options>
  <Variables NVar="5">
    <Variable VarIndex="0" Expression="Pt_J" Label="Pt_J" Title="Pt_J" Unit="" Internal="Pt_J" Type="F" Min="3.00002613e+01" Max="3.99993706e+01"/>
    <Variable VarIndex="1" Expression="PTD_J" Label="PTD_J" Title="PTD_J" Unit="" Internal="PTD_J" Type="F" Min="0.00000000e+00" Max="1.00000000e+00"/>
    <Variable VarIndex="2" Expression="N_tr" Label="N_tr" Title="N_tr" Unit="" Internal="N_tr" Type="F" Min="0.00000000e+00" Max="1.70000000e+01"/>
    <Variable VarIndex="3" Expression="D1_tr" Label="D1_tr" Title="D1_tr" Unit="" Internal="D1_tr" Type="F" Min="-8.67361738e-19" Max="2.05567971e-01"/>
    <Variable VarIndex="4" Expression="D2_tr" Label="D2_tr" Title="D2_tr" Unit="" Internal="D2_tr" Type="F" Min="-8.55187823e-17" Max="6.46337122e-02"/>
  </Variables>
  <Spectators NSpec="0"/>
  <Classes NClass="2">
    <Class Name="Signal" Index="0"/>
    <Class Name="Background" Index="1"/>
  </Classes>
  <Transformations NTransformations="1">
    <Transform Name="Normalize">
      <Selection>
        <Input NInputs="5">
          <Input Type="Variable" Label="Pt_J" Expression="Pt_J"/>
          <Input Type="Variable" Label="PTD_J" Expression="PTD_J"/>
          <Input Type="Variable" Label="N_tr" Expression="N_tr"/>
          <Input Type="Variable" Label="D1_tr" Expression="D1_tr"/>
          <Input Type="Variable" Label="D2_tr" Expression="D2_tr"/>
        </Input>
        <Output NOutputs="5">
          <Output Type="Variable" Label="Pt_J" Expression="Pt_J"/>
          <Output Type="Variable" Label="PTD_J" Expression="PTD_J"/>
          <Output Type="Variable" Label="N_tr" Expression="N_tr"/>
          <Output Type="Variable" Label="D1_tr" Expression="D1_tr"/>
          <Output Type="Variable" Label="D2_tr" Expression="D2_tr"/>
        </Output>
      </Selection>
      <Class ClassIndex="0">
        <Ranges>
          <Range Index="0" Min="3.0000261306762695e+01" Max="3.9999370574951172e+01"/>
          <Range Index="1" Min="0.0000000000000000e+00" Max="1.0000000000000000e+00"/>
          <Range Index="2" Min="0.0000000000000000e+00" Max="1.5000000000000000e+01"/>
          <Range Index="3" Min="-4.3368086899420177e-19" Max="2.0556797087192535e-01"/>
          <Range Index="4" Min="-8.5518782312844012e-17" Max="5.4275609552860260e-02"/>
        </Ranges>
      </Class>
      <Class ClassIndex="1">
        <Ranges>
          <Range Index="0" Min="3.0001932144165039e+01" Max="3.9997592926025391e+01"/>
          <Range Index="1" Min="0.0000000000000000e+00" Max="1.0000000000000000e+00"/>
          <Range Index="2" Min="0.0000000000000000e+00" Max="1.7000000000000000e+01"/>
          <Range Index="3" Min="-8.6736173798840355e-19" Max="1.8884080648422241e-01"/>
          <Range Index="4" Min="-3.3503944859835521e-17" Max="6.4633712172508240e-02"/>
        </Ranges>
      </Class>
      <Class ClassIndex="2">
        <Ranges>
          <Range Index="0" Min="3.0000261306762695e+01" Max="3.9999370574951172e+01"/>
          <Range Index="1" Min="0.0000000000000000e+00" Max="1.0000000000000000e+00"/>
          <Range Index="2" Min="0.0000000000000000e+00" Max="1.7000000000000000e+01"/>
          <Range Index="3" Min="-8.6736173798840355e-19" Max="2.0556797087192535e-01"/>
          <Range Index="4" Min="-8.5518782312844012e-17" Max="6.4633712172508240e-02"/>
        </Ranges>
      </Class>
    </Transform>
  </Transformations>
  <MVAPdfs/>
  <Weights>
    <Layout NLayers="3">
      <Layer Index="0" NNeurons="6">
        <Neuron NSynapses="10">
          5.5330296674889472e-02 6.2361915494557452e-01 6.0607537632220443e-01 5.5447399086843395e-02 7.2628242589919331e-02 -2.0961621596721053e-01 -6.1244178244323078e-01 1.0292172003241113e+00 -5.1050885287888403e-01 3.1045243511271362e-02 
        </Neuron>
        <Neuron NSynapses="10">
          -8.3098158373962075e-02 -6.7259988937228987e-01 -7.9273128497552192e-01 -6.9666387228050214e-02 -6.1502388069248248e-01 1.1676440028822208e+00 -7.9271376038606123e-01 1.0310413675990415e+00 1.5773960681844490e-01 6.9331053415795352e-01 
        </Neuron>
        <Neuron NSynapses="10">
          -3.4545761761913474e-01 -1.1975286529476326e+00 -6.8516949336054775e-02 3.4732827581272568e-01 -3.6380847732495136e-01 -8.1719046053703026e-01 8.6571982728913099e-01 -4.6916154026709606e-01 -1.3345739025142975e+00 1.6896736140509724e-01 
        </Neuron>
        <Neuron NSynapses="10">
          1.8883419514254618e+00 8.0326706490780120e-01 -2.5965510394159247e-01 -1.5106926951960118e-04 -9.8002555680860848e-01 -5.0342982839240069e-01 -9.7744949310424478e-01 6.3779302536217009e-01 -5.7950426764364815e-01 2.1840249949643655e+00 
        </Neuron>
        <Neuron NSynapses="10">
          5.1424380714282525e-01 9.5568577313804082e-01 1.6821606499264077e+00 4.7454913530900228e-01 -1.0214949891512755e+00 -6.3992319365369388e-01 7.7221528301040165e-01 -1.0248433073984659e-01 8.8582613323442372e-01 8.1871334182345779e-01 
        </Neuron>
        <Neuron NSynapses="10">
          2.4373729459257185e+00 -6.4746706960699196e-01 -1.7496364118168279e+00 4.3738898103279145e-01 -2.3323603243020479e+00 -9.3670052716144947e-01 -5.2889025862469319e-01 -1.9437614241311778e+00 1.5330865126774516e+00 2.4380656178720121e+00 
        </Neuron>
      </Layer>
      <Layer Index="1" NNeurons="11">
        <Neuron NSynapses="1">
          -9.5945652586031904e-01 
        </Neuron>
        <Neuron NSynapses="1">
          4.0769605881930798e-01 
        </Neuron>
        <Neuron NSynapses="1">
          -7.9095775888119857e-01 
        </Neuron>
        <Neuron NSynapses="1">
          5.9379986051365563e-01 
        </Neuron>
        <Neuron NSynapses="1">
          1.0245837879307576e+00 
        </Neuron>
        <Neuron NSynapses="1">
          3.9864179503770891e-01 
        </Neuron>
        <Neuron NSynapses="1">
          -6.3783250028924821e-02 
        </Neuron>
        <Neuron NSynapses="1">
          -1.1951254045145326e-01 
        </Neuron>
        <Neuron NSynapses="1">
          6.8651287818077264e-02 
        </Neuron>
        <Neuron NSynapses="1">
          8.3652726472439576e-01 
        </Neuron>
        <Neuron NSynapses="1">
          9.4226481610980284e-01 
        </Neuron>
      </Layer>
      <Layer Index="2" NNeurons="1">
        <Neuron NSynapses="0"/>
      </Layer>
    </Layout>
    <InverseHessian NElements="5041" NRows="71" NCols="71">
      <Row Index="0">
        2.9138757348585270e-01 1.1739894547306423e-01 2.5865547212119910e-01 4.8350406940143753e-02 -5.4471161287317466e-02 3.0505768491771203e-02 2.2316383423018388e-01 1.0982743783233009e+00 -1.2359915080644318e-01 -4.4680513633149961e-02 -1.1037943025881414e+00 -9.4960569516898158e-02 -4.9221868829921345e-01 -5.1594466347598678e-01 5.5890323410219434e-01 -2.2082034701800402e-01 5.1890500397203443e-01 1.1576369655181338e+00 7.3782900595613821e-01 2.9086462881114716e-01 -1.1429416332245643e+00 -2.0203540258074132e-01 -1.5187127031018710e-01 2.6220419669293787e-01 7.9128243007753662e-01 1.1924773017069115e-01 -8.6729868638403307e-01 -1.4429253508561049e-01 9.0230860965531501e-01 2.3739033236512022e-01 1.5923005350480264e+00 4.2870662535115633e-01 2.6299471532038093e-01 -1.3350746431873520e-01 -1.5950295623872737e+00 2.1765974928451151e-01 -2.7656159230049449e-01 1.0609573713112379e+00 7.3010992523836027e-01 -7.1778951451300463e-02 -4.5094220250303585e-01 1.8930142012641393e-01 4.1121916217646054e-01 3.5292148854205402e-01 5.2383809784931723e-01 1.5216950355666420e-02 -4.4548649565433251e-01 -3.2201376946646310e-01 -1.3018110148683857e+00 2.7278349561231402e-01 7.9254502584259245e-01 -7.1296187118179144e-03 -5.3120043493495750e-02 -2.7775239905578519e-01 -9.6333285681391212e-02 2.1953099810967891e-01 -5.9949199797506891e-01 -8.7741760715185069e-01 -1.0131287338165773e-01 2.1925122012608372e-01 3.0422615444778609e+00 -1.4864262394942238e-01 4.1071270454178621e-01 -2.3099787300367211e-01 2.0448454462580146e+00 2.3301830858208811e-01 -1.1392784253767760e-01 2.4611162287638061e-01 7.1234957767598250e-02 -1.0391419881688314e-01 -1.0622460125491402e-01 
      </Row>
      <Row Index="1">
        1.1739894541137508e-01 2.3124629468995512e+00 1.8642636446628043e+00 6.5571045031963227e-01 5.6947412995541173e-02 1.0050453817871828e-01 -1.0705055331060373e-01 1.6673950140041294e+00 4.2342404972550374e-01 -6.0356140527074290e-02 -2.6744006783114216e-01 -1.1823623135070456e+00 -3.0044446123452717e+00 -1.3113241876584840e+00 1.9104406448311692e-01 -8.4285700168011735e-01 -1.4528168240444856e+00 2.3284185776056732e-01 1.3392390684871818e+00 2.0935705554006659e-02 -5.3059308163980391e-02 -3.2468154697313856e+00 -1.3067492536712872e+00 1.4172383656471177e-01 1.3383189197301509e-01 3.2988702913318302e-01 -4.1884314775721709e-01 -7.5525133542056333e-01 5.0402891818480438e+00 1.3872530744471709e-01 -1.8984952066739913e+00 1.0797519290417221e+00 -2.0395192563763151e+00 2.7202798128632217e+00 6.7032639468667743e-01 1.1276714499146601e-01 -6.2946244398715945e-01 1.2610567055628925e+00 4.1338287772462117e+00 -2.2375564892233582e-01 -2.0990409782985414e-02 2.1105775918072180e+00 3.7235907110188426e+00 3.4105808317338231e+00 1.0363794379540496e+00 -3.1753707438251522e-01 -2.9660793942634589e-01 2.5509939759705973e+00 -3.8399757098386349e+00 -1.8933666587213549e-01 -1.4439995220636983e+00 -9.1716932437133825e-01 -2.2991867258022007e+00 4.7951276001829761e+00 1.6357019016210725e+00 -1.2998852025996033e-01 -6.2062075821366181e-01 2.4618289110139404e+00 6.3873985607386796e-01 -3.8198030781175768e-01 -1.8151215480285057e+00 -1.8744193017571511e+00 3.7550495184389603e+00 -1.2879868959021392e+00 1.1154396968766875e+00 6.1309369801270241e-01 4.8008117214796975e-02 2.3905139446745399e-01 3.8228302688973553e-01 2.7700404219688152e-01 3.5245670627435537e+00 
      </Row>
      <Row Index="2">
        2.5865547211085138e-01 1.8642636448745216e+00 7.7433386113422671e+00 8.9699491204801851e-01 -7.9501468234378703e-02 6.6754038388617279e-02 -1.9943551813749405e+00 1.1739142071010062e+00 -2.3411932989896203e+00 -5.6590630667998132e-02 -2.3852325416369435e-01 -1.4089879847695697e+00 -8.0261170112604017e+00 -6.0789088586558571e-02 6.4903173159769889e-01 1.6717749762481215e-01 -3.9375873327240689e+00 1.9288489427659095e+00 1.9846712478315534e+00 -5.4752513381099377e-01 -8.7632123844812182e-01 -5.2188379020247186e+00 -2.6626918413415477e+00 2.3333281054834192e+00 -2.7097954436630001e-01 -5.6979070188107384e-01 2.1765064995669725e+00 -1.3059963607932410e+00 7.6968224829920286e+00 -2.1309394536336357e-01 -7.3822723118147235e-02 3.7508683373463363e+00 -6.2532460973285406e+00 1.4759118367364885e+00 -5.1740702816895690e-01 -6.3824543040392723e-01 -4.7411530339436041e+00 3.4408247415299309e+00 3.4503712173674956e+00 -1.1081857463194351e+00 -3.4497964095713690e-01 7.4777228726067013e-01 1.7703204752574468e+01 5.2897498504029183e+00 6.9458855448553114e-01 -2.6445762690959590e-01 2.7592631559702445e+00 -1.6018412645536684e+00 -1.9447863534292882e+00 -5.5758202399764079e-01 -8.2364401405054166e-01 -1.6088709760222071e+00 -8.5199323197034840e+00 1.2587561616596854e+01 3.8432367293002390e-01 -9.8120998404959670e-01 -9.9101469047960711e-01 -4.7431439813218823e-01 2.2178202897851902e+00 -1.0088812279900701e+00 -2.1527887067299689e-01 -2.6315003790579725e+00 1.5374845487721664e+01 -6.2993510839060205e+00 2.7946635559928001e+00 -4.1334407663840472e-01 5.0748082821932083e-01 3.0839761670204036e-01 8.0954164945600260e-02 1.6913707586308757e+00 1.0320521928685066e+01 
      </Row>
      <Row Index="3">
        4.8350406854204692e-02 6.5571045054986676e-01 8.9699491216938299e-01 2.5342078975294746e+00 -2.6209064339492472e-01 3.0809831633491821e-02 -5.9879696501320483e+00 -9.5037823373348811e+00 2.2834637636420956e+00 -7.1210401343882249e-02 -1.0337373020881315e+00 -8.4266100312681214e-01 -5.2776204479792383e+00 3.0304549371681289e-01 4.8145561170045720e-01 -8.1599613459694065e-01 -1.2836696247837406e+01 -7.8947291243296904e+00 4.3874104232547602e+00 1.3855673948846672e-01 -7.6110046585728219e-01 -6.2085951653735960e-01 -1.7909095235878971e+00 1.6251106603366010e+00 7.6852104618941264e-01 2.7930267421403549e-02 8.5163357721325426e+00 6.2391875132513421e+00 3.5111564218947984e+00 7.9222306631361136e-02 -1.7697143935148979e-01 2.3107361166490678e-01 -2.1871557309176279e+00 2.8383406618612734e+00 -8.9990620890663919e-01 4.0489718611040687e-01 -1.7148862212819530e+01 -3.1124258250332040e+00 2.6672855431759421e+00 -8.7380901623576313e-03 -7.3679123834487248e-01 1.2139085807368792e+00 3.5323903800209551e+00 4.5308854175351332e+00 6.8192925110179525e-01 -4.5222746178695483e-01 1.0822330603965364e+01 1.0983282192721688e+00 2.5921449503400980e+00 -7.9815835161338694e-02 -7.3741687115111110e-01 4.5203043896927059e-02 -2.7019835178967870e+00 8.0188616849264616e+00 2.7695799428604850e-01 -1.2835752897884675e-01 -6.4452567680698927e+00 1.3830024860227503e+01 4.4692317408816580e+00 -2.0137879879379653e-01 1.2079257551264269e+00 -7.4100725432877224e-01 3.6161471842183466e+00 -6.0915639366871490e+00 1.9716601915427656e+00 4.8894402096225920e-01 2.1095300563735329e+00 -2.1472469153166336e+00 1.4922338929335191e-01 -1.3672384107271587e-01 9.7886625268210692e-01 
      </Row>
      <Row Index="4">
        -5.4471161261632102e-02 5.6947412881127812e-02 -7.9501468252532348e-02 -2.6209064349916483e-01 3.7865642773074726e-01 2.7211215485128122e-02 9.5004997571821814e-01 9.5252974754965192e-01 2.2623679860041446e-01 5.5618690053801698e-02 1.0251852478639099e+00 -2.5013444056028944e-01 9.4663222024554106e-01 -1.4833032318356637e-01 -7.5778508442155257e-01 5.2674248576108473e-02 3.3640789808506320e+00 -7.3465444121571355e-01 1.1413786470289431e+00 1.7945627492822025e-01 9.5901535752015366e-01 -2.6303012086512956e-01 2.1309745461264529e-01 -2.1037678490612705e-01 -8.7136119462759165e-01 2.7160873870109276e-01 -7.8192373699842443e-04 -1.7534924427477108e+00 2.6493295336433151e+00 -2.9129293937529291e-02 -8.7247873715940838e-01 8.7412549733557568e-02 7.6904061919404521e-01 -3.8777394692060357e-01 1.7263683851359699e+00 1.4652505220101658e-01 9.8677104366225010e-01 4.8171043932055096e-01 1.1468211381580771e+00 8.4119116249742631e-01 7.1620512865747876e-01 -1.2709357455984599e-01 -7.1332944387061215e-01 -4.1473378721114074e-01 -9.3111233310661867e-01 8.1520709616612758e-02 4.6456079507134485e-02 -8.5559925620310695e-01 3.7135042385100048e-01 6.4841677353855431e-03 1.8815058358233058e-01 -2.3473055711431001e-01 6.3807330235473636e-01 -1.4513462699650461e+00 -2.4420175174076533e-01 2.6775150862066316e-01 9.0922961657529433e-01 -1.7888945527821916e+00 1.0552499178488142e+00 4.2187301200659627e-01 -2.1175943236559638e+00 1.1413106148097477e-01 -6.4091967545552131e-01 8.9887160510383235e-01 -3.2575811763388045e+00 9.8594393712051615e-02 -2.9280223872472755e-01 1.8487876482986165e-01 1.4035238145523823e-01 -1.0958548567785309e+00 -1.5121516068348867e-01 
      </Row>
      <Row Index="5">
        3.0505768481029108e-02 1.0050453817175153e-01 6.6754038333943555e-02 3.0809831608537310e-02 2.7211215504273793e-02 2.2176078554062367e-01 -4.6546380928028697e-01 2.5883644387956239e-01 9.7868732310845985e-01 -2.0720878165175587e-02 -3.3356632473892994e-01 5.1376104211179052e-02 -2.2041132079176839e-01 -6.2834542029241158e-01 1.1756933952628702e-01 -3.6453721091399738e-01 1.5451533020837638e+00 -1.8410550813621979e-01 -9.2776683431202500e-01 7.4025468977724995e-02 -1.1601493864383187e-01 1.8858930529480547e-01 3.8680238982732984e-02 1.3445375537524001e-01 1.3494168998736611e-01 3.6826826511202454e-01 -1.2097099846531782e-02 2.2000496852499790e-01 2.3741352870915331e+00 8.0125968719423277e-02 -5.2807046843477801e-01 -1.0073308888809729e-01 -2.2781197218037556e-02 3.9027802552960938e-01 2.4951705305581023e-02 3.3216639994693076e-01 -3.7060544023532166e-01 7.0905364362528395e-02 1.8297753144553961e+00 -6.4805237848450908e-02 -2.4726884911917435e-01 1.5488253078765019e-01 1.2416190844060809e-01 5.6172026966757649e-01 1.4423328394488605e-01 -2.4925930041152199e-02 4.1997522234993040e-01 1.0812673051896220e+00 1.4126184070592757e-01 -1.3429709909186183e-02 -4.7583470086084145e-01 -1.5655322617163767e-02 -8.8652295226136490e-03 6.2474984869137673e-01 2.1331342631185463e-01 3.8325715121318371e-01 -7.0014635955063687e-02 1.0029314079834661e+00 1.3869635446031476e+00 -1.5583280602240648e-01 -8.8687776060771092e-02 -8.1488905697577434e-03 1.6609408147204940e-01 9.4888076973025223e-04 3.4532377342417686e-01 4.3635760966300785e-01 4.5141143534782602e-02 1.9475434760633958e-02 1.6899928745706061e-01 -1.3180630813212829e-01 4.7965266503457332e-01 
      </Row>
      <Row Index="6">
        2.2316383434878473e-01 -1.0705055376141814e-01 -1.9943551817620744e+00 -5.9879696503318920e+00 9.5004997556795057e-01 -4.6546380934203690e-01 4.8182157476319389e+01 2.4141296925550687e+01 -1.0895469955651151e+00 -6.9129056695724000e-02 2.0013106742340105e+00 -1.8282992534664881e+00 1.1725095107406787e+01 -5.7328428700290139e+00 -1.9420603913582473e+00 -1.0194151113487471e+00 5.3169200996735455e+01 2.1727815064395237e+01 -2.0960118339230892e+01 1.1978019357034717e+00 8.8746734490945567e-01 -6.9475804858201435e+00 -3.6614503287786437e-01 3.2146641342489408e+00 -1.2663515597718731e+00 2.8270954429276068e-01 -4.1437850480017396e+01 -9.1283961846103789e+00 2.0543407984397895e+01 8.5899736003614602e-01 7.3953772312541000e-01 6.7068918714930059e-01 7.1195500402348699e+00 -8.3853189392609959e+00 7.2367727277687999e-01 8.2989429786273827e-01 8.4248120347480807e+01 -1.1117434737961163e+00 1.5401399558009032e+01 4.0065892242302525e-01 3.0284894166167691e+00 1.3413076400838170e-01 -9.7597151957224852e+00 -1.4197937852195555e+00 -7.5501493520999641e-01 -1.2714522448879917e+00 -4.8426166964793488e+01 9.7107631683123365e+00 -3.0043019314399523e+01 1.3902690272249498e+00 4.0010930966354161e+00 -3.6535697528925830e+00 5.5463195048793272e+00 -2.1411306355193169e+01 1.0133408568394282e+00 -3.8686557054017923e-01 4.3359767238372299e+01 -3.2951187088624295e+01 -2.0899275596985440e+01 1.7525756688162744e+00 -1.2719961636660793e+00 -4.4705497007089234e-01 -8.8874729914890729e+00 1.2549915992459196e+01 -5.9620866340903689e+00 1.8363564136390170e-01 -1.0200151918548549e+01 6.0050866865121391e+00 2.2940339158985923e+00 -1.0738415648592918e+00 -3.8715792761188532e+00 
      </Row>
      <Row Index="7">
        1.0982743783874152e+00 1.6673950129530795e+00 1.1739142060405356e+00 -9.5037823379085040e+00 9.5252974745806473e-01 2.5883644380424170e-01 2.4141296924631092e+01 1.0234389167123635e+02 -1.4434893423334870e+01 -3.6781179038544970e-01 1.5212918342070032e+00 -6.9346800257871024e+00 1.6935653364655991e+01 -1.3160204697619296e+01 -2.0106082494960447e+00 -5.0444176262341260e+00 3.1299572467547584e+01 1.0444786298825082e+02 -3.2721741993280276e+01 1.0040025168583600e+00 1.2769379831180205e+00 -1.1084106571366521e+01 2.0780966528001494e+00 1.2647427831518776e+00 -1.0564308059262639e+00 1.6623935481681829e-01 -5.8657842990747568e+01 -4.9028918642422504e+01 -3.1042679454214710e+00 1.7137824831615924e+00 -1.5114237416796805e+00 4.4938184174968505e+00 8.9720409283747404e+00 -7.4575902841150246e+00 -2.1895095580011903e+00 9.4286790179620006e-01 8.0995541843012262e+01 5.2394280934893168e+01 -6.9045776233420479e+00 -3.2208073840621720e+00 3.1727267774990557e+00 3.1252542468587046e+00 -9.4258326307695803e+00 -2.6290803071563840e+00 1.5980883927830642e+00 2.2240069521446210e-01 -6.1409194396283986e+01 -1.2813056090656172e+01 -4.3352382725584725e+01 9.3336757981543639e-01 3.2928254277950111e+00 -4.3470094574677276e+00 7.4562024754807421e+00 -2.4411466776148728e+01 2.9233996390585153e+00 1.3832294347890823e+00 1.8678064149922687e+01 -1.0967983358743146e+02 -3.6440134506539863e+01 -2.4928199302442869e-01 -3.6106264611124752e+00 -3.2617094955279633e+00 -8.3876992811558644e+00 1.8838581072457174e+01 -2.3480257459220635e+00 2.9075197858810133e+00 -1.1238738709931383e+01 2.3611015459290066e+01 1.1804563099761296e+00 3.2348757267007429e+00 1.3228854606937324e+01 
      </Row>
      <Row Index="8">
        -1.2359915102866914e-01 4.2342404990870364e-01 -2.3411932998646989e+00 2.2834637635304897e+00 2.2623679880537054e-01 9.7868732311165607e-01 -1.0895469944302931e+00 -1.4434893422284194e+01 5.2088376847796212e+01 -6.9859999842561957e-02 -7.8393592941953627e-01 2.1252590006961358e+00 -3.8401106545318271e+00 -5.2956992272246817e-01 6.5859680746967286e-01 1.2324135665012474e+00 1.8123166237030806e+00 -1.8720497378233787e+01 -1.2490276503727101e+01 -6.4055196662953506e-01 -5.0645672001486863e-01 -3.5402307870197303e-01 -3.2152619460033360e+00 1.9709205497646483e+00 1.2361716293590326e+00 2.3344101163528026e+00 1.3926380819444249e+01 -3.0615086769377453e-01 1.2207897996281112e+02 -3.7892452551005362e-01 -3.6201588085541121e+00 -3.2311217550357538e+00 -8.1486923862829952e-01 2.9006525693668959e+00 1.6275947611931278e+00 2.1694945036828859e+00 -8.7378500376507144e+00 -9.3948242543381806e+00 7.9942429219652439e+01 -4.9531598350189898e-01 -6.5120582410192507e-01 2.0630274400731583e+00 -2.9275411895142400e+00 4.7437864289864606e+00 8.7569447320500160e-01 -3.2666043056836278e+00 3.7990306035982115e+00 1.3917538902696460e+01 -4.5671669129193859e+01 -2.7387010211422791e-01 -3.7657661280388606e+00 -1.1706133853906397e+00 -4.7244997308685255e-02 6.1516387557812662e+00 1.9284642649973747e+00 -3.9399202227891728e-01 -3.7016893835057929e+00 2.1884403315123716e+01 1.6430835310852515e+01 -1.0384373859957374e+00 -2.6774700112678440e+00 5.4366486590751351e-01 -2.1911657367207487e+00 -5.3966585386057782e+00 2.1880151721263057e+00 7.6037965143026909e-02 1.4102519317987099e+00 -3.5322848870860772e+00 1.0987320194187951e+01 3.9759254596849303e-01 -1.0917188655910039e+01 
      </Row>
      <Row Index="9">
        -4.4680513617056564e-02 -6.0356140563109228e-02 -5.6590630653047924e-02 -7.1210401357854419e-02 5.5618690045106889e-02 -2.0720878170638342e-02 -6.9129056675483191e-02 -3.6781179046070278e-01 -6.9859999873692402e-02 7.1448143460370386e-02 2.3995166144104449e-01 1.3931164985878430e-01 2.6682194206512122e-01 1.6986992364384557e-01 -1.4307015195162859e-01 1.7314848929479765e-01 6.5943868614526835e-02 -4.7332209516909118e-01 -1.9708253704246687e-01 -1.4614853041741949e-01 2.0917481263680135e-01 1.2929617701129309e-01 1.3831133431279266e-01 -2.1393012725403585e-01 -2.6889613398650336e-01 -5.3771304122312728e-02 3.1071465381667390e-01 -1.1636789827205990e-01 -4.9144518402531684e-01 -1.9702554369052619e-01 -1.2060268096180807e-01 8.7994641924266259e-02 5.4390708389809347e-02 -2.3735076471262961e-01 5.4763443757053409e-01 -1.1590082087483032e-01 -2.7832492959121913e-01 -1.8406306712292925e-01 -5.3007158991048220e-01 4.0234055236694843e-01 1.4757813345235038e-01 -7.7481852870726425e-02 -1.1306678291671000e-01 -4.8495828734671065e-01 -3.3233266781691989e-01 5.6742090461125320e-02 2.9917280851302031e-01 -3.1553731375683258e-01 3.7267060857493883e-01 -9.0741048768918850e-02 -1.2754637156708803e-01 1.2691084394410146e-01 1.0511048238148146e-01 -4.2284502476719277e-01 -3.9896117657639074e-01 -5.3268877528111269e-02 -1.3539027718952878e-02 -6.5326911570228852e-02 -1.5091335706927644e-01 1.0204102513344776e-01 -4.7379771759534961e-01 8.1810635087332967e-02 -1.5894864943289580e-01 1.8564370463776683e-01 -9.1246944555243947e-01 -1.3299566782987482e-01 1.8198158420599228e-02 -8.3856792635256111e-02 -4.2617389377837323e-02 -3.5761924277606510e-01 -1.8484020945486773e-01 
      </Row>
      <Row Index="10">
        -1.1037943025072954e+00 -2.6744006813069898e-01 -2.3852325375847983e-01 -1.0337373024419994e+00 1.0251852478732282e+00 -3.3356632480010240e-01 2.0013106745023990e+00 1.5212918343968107e+00 -7.8393593061815636e-01 2.3995166149096908e-01 9.5132474648178373e+00 -1.8340038332227862e+00 4.9140838505698525e+00 3.4475049512576281e+00 -4.8580074711786736e+00 1.4165173070940149e+00 5.9362312181312014e+00 -2.5900486796033269e+00 4.6121717165370235e+00 -2.0870432677152162e+00 7.9239624469997372e+00 -1.6422925628458533e+00 8.7886349937570607e-01 -7.9044653791274522e-01 -5.6944469139535130e+00 -1.0429327651426581e+00 1.4164180599870033e+00 -5.5923932056802732e+00 7.6681982956166017e-03 -1.6133542907793128e+00 -5.2780910196889224e+00 -4.3190640450485163e-01 1.9463253086801366e+00 -2.1178622357380461e+00 8.6650758886154140e+00 -1.0160541823259861e+00 9.1002575816583708e-01 1.3647821651692895e+00 -3.0663038989185316e+00 -1.6202385719493650e-01 4.7209669356697637e+00 -1.6505657426092821e+00 -1.8006133368980495e+00 -2.9319525066078334e+00 -4.6768936969551920e+00 3.4332503010389381e-01 8.4973935292511071e-03 -2.7345435214828089e+00 3.4245691690973650e+00 -1.6867189024602904e+00 -1.9546752180206806e-01 -1.8580778415721675e+00 1.3565043503270762e+00 -2.9522831450890838e+00 -1.0702750810722632e+00 -7.8258860073365510e-01 1.4080285248259767e+00 -4.3792525172327164e+00 1.1447842194118563e-01 -4.1781204760506258e-01 -1.8895538035068739e+01 8.1617813728264277e-01 -2.2494052856709494e+00 2.5546326373875887e+00 -1.5303401439094030e+01 -1.5204697431369414e+00 -6.1402905401367858e-01 3.3469914601080503e-01 -1.9682790807023298e-01 2.8876743560867295e+00 -5.7005379952146829e-01 
      </Row>
      <Row Index="11">
        -9.4960569445477871e-02 -1.1823623135774355e+00 -1.4089879849362603e+00 -8.4266100285812207e-01 -2.5013444062915047e-01 5.1376104203511699e-02 -1.8282992537640581e+00 -6.9346800271671043e+00 2.1252590008508889e+00 1.3931164983696986e-01 -1.8340038335557114e+00 1.0229743675521689e+01 7.6802377271433784e+00 -1.4878210247186047e-01 2.1970802381131480e+00 4.6767807389383059e-01 4.0575533017134688e+00 -1.7458909703680725e+01 1.7734089224356351e+00 -7.2952737731339601e-01 -9.7650455951053960e-01 7.8648600548164866e+00 1.9920819252673558e+00 -1.3012346912549715e+00 1.6337930853261682e+00 3.9320171034864737e-01 6.8434275298047114e+00 -7.1024443601447533e+00 1.8600296086678729e+00 -4.8964889930798577e-01 -6.0011121968171333e-01 -3.3126631287469408e+00 1.7856247839965949e+00 -5.3025325608110818e-01 -1.8043383046566630e-01 -3.3274542970151905e-01 1.8105024152501630e+00 -2.6374030820393659e+00 -1.2013428527350190e-01 -3.4779811238918557e-01 -2.3419662096934792e+00 -4.4713239490289265e+00 -4.9658101883510462e+00 -3.4381731418322765e+00 1.1873877110620352e+00 -1.1052584903278706e-02 -3.0539564418594383e+00 5.1760157601606824e+00 9.9468454782242999e-01 -7.6625016513829081e-01 -3.2923476317355203e+00 4.6693797180395324e-01 2.9683859374358534e+00 -3.5115408778883657e+00 1.6263468666955005e-01 -2.1230248514671790e-01 -1.9097535592156785e+00 1.1695532884152529e+01 -5.1225597020869928e-01 -1.4175823118671174e+00 2.0351792025248256e+00 3.7354643524838309e+00 -5.4618320390347810e+00 2.1470963845096565e+00 4.7907284996104593e+00 -2.3413876599849825e-01 2.8469719272490390e-01 -2.4678204422610257e+00 1.5645551698274307e-02 3.9762061875266141e-01 -2.0665904294466957e+00 
      </Row>
      <Row Index="12">
        -4.9221868812149827e-01 -3.0044446130797553e+00 -8.0261170112028708e+00 -5.2776204479597624e+00 9.4663222009285097e-01 -2.2041132091560783e-01 1.1725095106665492e+01 1.6935653362544599e+01 -3.8401106564039083e+00 2.6682194209039745e-01 4.9140838505148521e+00 7.6802377274590725e+00 4.1115881236487212e+01 -5.9672455799131385e-01 -2.6538628550536276e+00 -3.2068075041274507e-01 2.6029082925863690e+01 9.9814459554926671e+00 7.6031752409376692e+00 -1.0148393534778908e+00 4.6102325524526915e+00 7.9566375813737613e+00 1.5149190646490847e+01 -4.3440964783247251e+00 -2.4940617779290388e+00 -5.2341019830196012e-01 -1.5024780335846536e+01 -1.1452153315793442e+01 -2.0130391615064934e+01 -9.1992552181899023e-01 -1.9493042434102152e+00 -3.5757001536423831e+00 1.0964918223895294e+01 -7.0281457625298041e+00 4.4953665665519722e+00 4.8811610948165385e-02 2.8483827276151569e+01 7.9303024369912034e+00 -1.0913094718508697e+01 4.4866968986326450e-01 1.6727861725290951e+00 -4.5914074289818201e+00 -2.4627944575410041e+01 -1.3416018099915405e+01 -3.3045143556641308e+00 2.4308122974262409e+00 -1.8662655279613851e+01 -1.3976469368461817e+01 6.9712569177806989e+00 -7.3438875433245543e-01 -1.9929238339156502e-01 1.4440578414226291e+00 1.5260630932995216e+01 -2.8257841342783088e+01 -1.8869614337235920e+00 2.3032133305633673e+00 8.2928687611480143e+00 -3.1379084981690589e+01 2.2619717247561599e+00 8.9999732408408098e-02 -8.8148388862650311e+00 4.2265275906018509e+00 -2.4706406545723791e+01 1.6822441265992929e+01 -9.4761803373218960e+00 -1.1438789421835538e-01 -4.2369950702606509e+00 3.3907911419823247e+00 -9.1678043607672866e-01 7.6478928416630509e-01 -1.2247791565834365e+01 
      </Row>
      <Row Index="13">
        -5.1594466340376832e-01 -1.3113241872999453e+00 -6.0789087781898843e-02 3.0304549408592124e-01 -1.4833032336500285e-01 -6.2834542026330409e-01 -5.7328428705718295e+00 -1.3160204698264948e+01 -5.2956992205781717e-01 1.6986992357005049e-01 3.4475049506473892e+00 -1.4878210277918669e-01 -5.9672455974452987e-01 9.1866927393114892e+00 -1.0115136693281936e+00 4.2211130463981625e+00 -8.5092233104174966e+00 -9.3211339471816590e+00 5.8029620639053432e+00 -4.3076687120448426e-01 1.0174655742614525e+00 9.0552152755016968e-01 1.0463922006802182e+00 -1.5722019434049324e+00 -2.1862562932197855e+00 -2.2992586997908986e+00 1.2171694205570471e+01 4.8614067758804875e+00 -5.9771292736795623e+00 -7.7250820410012555e-01 6.2974072157590779e+00 4.0440665974476009e-01 -1.7709471096479064e+00 -1.9953244475615199e+00 2.6016287722708675e+00 -2.0865880190346351e+00 -1.4802759407456170e+01 -4.0178825603977826e+00 -4.2877049937164253e+00 1.6226492909394616e+00 2.8908406161948741e+00 -1.8946555157649572e+00 3.2637828812457217e+00 -5.0545255299149217e+00 -2.3979597945048097e+00 4.3010804733037639e-01 1.0411771073963795e+01 -5.0506482095006069e+00 1.0752242299443843e+01 4.5458257079780412e-01 6.2151480659067015e+00 9.4889671984646806e-01 -1.6737925609735158e+00 1.7998580276330920e+00 -1.6094138767824535e+00 -1.9667041617079084e+00 -4.9925378255374087e+00 9.2270676442276773e+00 3.2731951323553679e+00 2.2735269724247829e+00 1.2002940672998235e+00 5.9181706101501275e-01 1.8372024494295944e+00 -1.1952630111676315e+00 -3.8940435681471834e+00 -3.7169242027589524e+00 1.9586242587243956e+00 -2.6808945596479181e+00 -9.0803045739660981e-01 -5.2401342244795046e-01 -6.2184455465626334e+00 
      </Row>
      <Row Index="14">
        5.5890323403735054e-01 1.9104406471034707e-01 6.4903173131853009e-01 4.8145561193126041e-01 -7.5778508439894565e-01 1.1756933957455921e-01 -1.9420603915377583e+00 -2.0106082495528526e+00 6.5859680808853227e-01 -1.4307015197217210e-01 -4.8580074711600307e+00 2.1970802379645598e+00 -2.6538628550120791e+00 -1.0115136698752185e+00 3.8266741599693046e+00 -4.6068668652361910e-01 -4.3248627191510138e+00 -1.4836688262303301e+00 -1.6695966681071468e+00 -2.2815040698921535e-01 -4.2452531321799913e+00 1.4849130389496266e+00 -4.5914873586150473e-01 6.0918017021638016e-01 3.7375731483738144e+00 -1.1417076871972462e-01 3.5496873724754119e-01 1.3678037419297748e+00 3.1144928902887248e-01 1.4449565204006076e-01 2.1754911677386231e+00 6.2884989820125289e-02 -1.8881606517165814e+00 1.5167854809705996e+00 -4.6904083401756616e+00 1.6517929499404216e-01 -1.5249334984606742e+00 -1.3083978231240707e+00 2.7411133286629639e+00 -1.5090754010345182e+00 -3.1983233148354029e+00 2.5413263945150660e-01 2.1532877186758026e+00 2.1554680423443471e+00 3.6090209424202335e+00 -4.9096385913539703e-01 4.4047490484884644e-01 1.5489243335373204e+00 -3.1702768650662190e+00 3.6118595434707984e-01 -1.9575721073613221e+00 1.0440029937245614e+00 -1.6084038761028696e+00 3.6528732038028124e+00 1.8888182238953153e+00 -3.1531968505635966e-01 -1.8371853822807811e+00 3.4982529438451984e+00 -4.8363621116999411e-01 -1.1849089231925594e+00 9.0260860381419388e+00 -3.1184363404840121e-01 2.1222005411171239e+00 -2.2082593134158617e+00 1.1614791756163447e+01 3.0102328647761128e-01 5.2344618718650027e-01 -5.7125286595475933e-01 1.2367086512156378e-01 1.2103096267697189e+00 1.5506638079844888e+00 
      </Row>
      <Row Index="15">
        -2.2082034691990443e-01 -8.4285700172597444e-01 1.6717749762665335e-01 -8.1599613449211217e-01 5.2674248430965243e-02 -3.6453721091196217e-01 -1.0194151114248484e+00 -5.0444176270074266e+00 1.2324135669922498e+00 1.7314848925252568e-01 1.4165173064648009e+00 4.6767807415793428e-01 -3.2068075079951086e-01 4.2211130464834250e+00 -4.6068668604410828e-01 5.4878983770744618e+00 6.5937657289407525e-01 -3.9472819820427500e+00 1.4268268783188489e+00 -1.1299772732085316e+00 4.9044567029812580e-01 1.8898864734793719e-01 8.4267464722737895e-01 -4.1489781706453304e+00 -8.1134692797481722e-01 -4.2289848573608679e-01 5.8790960910545174e+00 -8.2284899139967393e-01 6.0570293332132881e+00 -9.9209392516748807e-01 1.6322006318384741e+00 4.9610468382543815e-01 -1.8695529255128740e+00 -2.2962052461908335e+00 1.5053459603234833e+00 -1.7514931088800212e+00 -1.7791974643787583e+00 -2.9350457343857195e+00 3.3869120483223898e+00 -4.7450428039505652e-02 7.4226234718367601e-01 -7.3532376372373487e-01 2.9843303545738076e+00 -6.4228209107951901e+00 -1.1441789470053025e+00 8.0971148878631571e-01 2.0823021849818657e+00 -2.1332199464765935e+00 6.5876223149595967e+00 -3.6834617567496897e-01 7.8830579008171731e-01 8.0418500627721956e-01 -1.2853300648105959e+00 -2.4048619882827209e+00 -1.2305401734929466e+00 -1.0769335355413547e+00 2.4130623838173909e-01 1.6141307332928978e-01 1.9072736465805855e+00 -4.3894743170639801e-02 -9.9894406685890846e-01 1.0998315623324671e-01 1.6037868497895182e+00 1.6325713852456838e+00 -8.9943956906714084e-01 -3.1769204918404554e+00 5.0847562237041810e-01 -9.1750179106354079e-01 -4.7832530935749143e-02 1.0616380305619981e+00 -1.8862013498189170e+00 
      </Row>
      <Row Index="16">
        5.1890500441634813e-01 -1.4528168253259395e+00 -3.9375873332426750e+00 -1.2836696248044333e+01 3.3640789804606124e+00 1.5451533019009869e+00 5.3169200996598590e+01 3.1299572465810826e+01 1.8123166220816529e+00 6.5943868570845332e-02 5.9362312169227716e+00 4.0575533025412369e+00 2.6029082926234764e+01 -8.5092233079905757e+00 -4.3248627185638551e+00 6.5937657346891443e-01 1.5218513743250719e+02 3.1825631532701593e+00 -3.2478201661803951e+01 -5.5005375952418989e-01 4.8356605020266699e+00 2.7471777308103071e+00 4.8425613489555301e+00 -7.3311887623802208e-01 -5.5053877139650567e+00 5.7814289359264306e+00 -3.1003567987927493e+01 -2.2539627204252874e+01 1.5142944742908419e+01 -2.7490740647055711e-01 -4.4079017314093711e+00 -5.7377919901486090e+00 1.9005457344650186e+01 -1.3606165701177163e+01 5.5091485592507574e+00 3.5632533031519964e+00 1.1062324698313611e+02 2.7348706954104460e+00 1.3046702403090489e+01 1.3372670283769261e+00 2.5103478555625944e+00 -9.4067011109955097e+00 -2.4599417516716287e+01 -1.3210399081683658e+01 -6.6728610491206704e+00 5.0702006841509739e-01 -6.0998874849727535e+01 1.9700393806391702e+01 -1.8220686353416273e+01 -5.1142937854737947e-01 -5.3467193884568198e-01 -7.0262574105766573e+00 1.7168319046049231e+01 -4.2116499441529704e+01 -3.6759911571627764e+00 5.5735094422433038e+00 5.7991749064407877e+01 -2.7333721445019577e+01 -1.1162546155729503e+01 7.6086076976579209e-01 -1.3228303144890704e+01 6.9976740959431467e+00 -2.2815480468384280e+01 3.2214873727787108e+01 -1.7951596695886650e+01 3.3087651205964539e+00 -1.4584153699410184e+01 6.6837144253747045e+00 1.7915353802209117e+00 -9.8490954547823861e-01 -7.9929992497217084e+00 
      </Row>
      <Row Index="17">
        1.1576369654965082e+00 2.3284185716786965e-01 1.9288489420123369e+00 -7.8947291246829874e+00 -7.3465444139849190e-01 -1.8410550813177906e-01 2.1727815062993045e+01 1.0444786298869161e+02 -1.8720497377977608e+01 -4.7332209515659596e-01 -2.5900486799787714e+00 -1.7458909702455117e+01 9.9814459568410712e+00 -9.3211339473827266e+00 -1.4836688258109336e+00 -3.9472819814516837e+00 3.1825631534427430e+00 1.5140741114534313e+02 -4.4465774444063527e+01 2.7904467136903648e+00 -3.4713750136148400e+00 -1.7284920572497583e+01 4.2046874243513876e+00 1.5626575077677387e+00 1.3500127597593378e-01 -2.5988536725019182e+00 -6.7186007930362592e+01 -1.5098563553147430e+01 -1.7613881407280793e+01 2.7196708080182725e+00 6.5429353367376910e+00 1.1139305292469134e+01 2.9692098480406304e+00 -8.4789140737060258e+00 -7.4519827284375397e+00 -4.8121791099572275e-01 7.6005912813275373e+01 5.6247357673442721e+01 -1.4604574116174025e+01 -2.4325811443344354e+00 3.8073215338498052e+00 9.9564455707298638e+00 1.4720186749341106e+00 -2.9020453985083181e+00 3.0590791538272444e+00 9.8251739233380420e-01 -5.5816019148593028e+01 -2.3760422001649975e+01 -4.1852932871088520e+01 3.2631305752164437e+00 1.0501441906096099e+01 -2.0362428809134647e-01 2.2019908276923799e+00 -1.8689105120002299e+01 1.7594635859054675e+00 3.0043533504261477e-01 2.1086933383914570e+01 -1.2086087338335901e+02 -3.8904940019680595e+01 2.1903224459997155e+00 1.0316234537621666e+01 -8.7601077726190475e+00 1.0743287519606470e+00 1.4525985085552097e+01 3.1900301724724689e+00 8.9275032852200342e-01 -9.9831949397320177e+00 2.6680556548451538e+01 4.5879568764544576e-01 4.1781275603535306e-01 1.3954505640859166e+01 
      </Row>
      <Row Index="18">
        7.3782900598392465e-01 1.3392390687658331e+00 1.9846712485130382e+00 4.3874104233742726e+00 1.1413786471375169e+00 -9.2776683430255757e-01 -2.0960118338760999e+01 -3.2721741992765779e+01 -1.2490276504643290e+01 -1.9708253703917800e-01 4.6121717166382332e+00 1.7734089217843998e+00 7.6031752399653669e+00 5.8029620638759454e+00 -1.6695966683458119e+00 1.4268268780264388e+00 -3.2478201661751051e+01 -4.4465774443211046e+01 2.8167123906210185e+02 -3.0611233671175433e+00 5.5120381388197375e+00 9.6439879956580707e+00 3.6464438058089534e+00 -1.8005350941055571e+00 5.8210799079001809e+00 -5.2102635501771006e+00 7.8179157000911470e+00 4.9584672264607050e+01 1.9121418524128060e+01 -1.8380999758339722e+00 1.5033551928351412e+00 1.7420699239066104e+00 -2.3113622802522151e+00 -2.7860160287282731e-01 1.0446797376571371e-01 2.0038858889522420e+00 -8.0807550916014065e+01 3.2931342023543628e+00 1.6939754359076398e+00 -3.2440860604617563e+00 -4.3834016627557508e+00 -5.9021182987663625e+00 2.4728826824513419e+00 4.6719797300267984e+00 -2.2106143450934943e+00 5.8706311936745248e+00 5.0733216721302128e+01 -3.0477881899882235e+01 4.3571071716238180e+01 -2.4083685679818361e+00 -3.5014763329133678e+00 2.8130708259224897e+00 -2.5033747144016978e+00 6.3789361121318002e+00 2.6510906271168899e+00 1.6320915429789533e+00 -3.3632551956570445e+01 5.1547896526378537e+01 7.1473498514222882e+01 -2.7689354272264466e+00 -6.1112851163359014e+00 1.3576568681559693e+00 2.6240697197758336e+00 -1.4697733424131695e+01 1.8541620772821110e+00 -1.9452091946450090e+00 5.8596207345699067e+00 -9.5564289432547120e+00 -4.6609798774482947e+00 8.2449481565828702e+00 -8.3177571655513072e-01 
      </Row>
      <Row Index="19">
        2.9086462879855479e-01 2.0935705684742345e-02 -5.4752513364800848e-01 1.3855673959585368e-01 1.7945627486280324e-01 7.4025468978149433e-02 1.1978019355807419e+00 1.0040025169770388e+00 -6.4055196608057940e-01 -1.4614853045847975e-01 -2.0870432676870614e+00 -7.2952737768428477e-01 -1.0148393539338940e+00 -4.3076687107021716e-01 -2.2815040695680042e-01 -1.1299772731985307e+00 -5.5005376067742873e-01 2.7904467144522531e+00 -3.0611233676384018e+00 5.1132720100112481e+00 -2.2302766167797490e+00 -9.9211814218719496e-02 -4.5552882748112022e-01 9.8249834974274863e-01 1.9225614042991973e-02 5.0133730378615138e-01 -1.9769091277705093e+00 1.3004733942237943e+00 -3.2466696875708312e-01 3.1091212256404299e+00 4.9911894972446671e+00 2.8870063986077615e-01 1.0023544968699052e+00 -4.1361911203126001e-01 -1.3554301172670784e+00 8.3372572028397096e-01 1.1238787469581635e+00 8.6081419713360052e-01 -3.1038867817977511e-01 4.1376207709100576e+00 8.2793694800012962e-01 3.6576810890919498e-01 -1.5964810719104889e+00 7.1537396736647207e-01 -1.3176143332528316e+00 -2.4867866767765917e-01 -5.4704421210916365e-01 -4.9335862040839196e-01 2.8668171131889353e-01 2.7683645338731591e+00 7.5578619627772952e+00 3.0957502856426927e-01 8.0650683158013781e-01 -1.3019345035605820e+00 -8.4410116185806316e-01 6.5690454938226628e-01 6.2106589424536462e-01 -1.0683972646304127e+00 1.0961286814257587e-01 4.5824808710061014e+00 1.0068349404755725e+01 -1.5218156174688358e-01 -9.8391957926708518e-01 2.8715299507732300e-01 -3.3825534961633141e+00 7.6519076089017646e-01 -2.3590512928240293e-01 3.1784597568514605e-01 4.5832352796662396e-03 -8.4504662038262559e+00 -4.4821735580321151e+00 
      </Row>
      <Row Index="20">
        -1.1429416331784863e+00 -5.3059308664931137e-02 -8.7632123853472876e-01 -7.6110046642359142e-01 9.5901535763610468e-01 -1.1601493872275670e-01 8.8746734559413198e-01 1.2769379834975609e+00 -5.0645672151838994e-01 2.0917481273099492e-01 7.9239624473203243e+00 -9.7650455895533028e-01 4.6102325535552495e+00 1.0174655748644006e+00 -4.2452531324855514e+00 4.9044567097808311e-01 4.8356605047768824e+00 -3.4713750136210146e+00 5.5120381388790634e+00 -2.2302766167571515e+00 8.1051173858793426e+00 -5.3501186344381324e-01 1.0463833238377731e+00 -1.5674951186070145e+00 -4.6120589197466604e+00 4.1493590053194529e-02 1.1203662257257212e+00 -4.5219742438168788e+00 2.6595566526427388e+00 -1.5305782562779824e+00 -9.4097198694326689e+00 -1.1390810485633924e+00 1.7338942511945210e+00 -2.3349110115693544e-02 8.9921922611675420e+00 -7.6894722442250674e-01 1.2637136079013180e+00 2.2720633395623682e-01 -6.1213156087777882e+00 -7.0761048074016020e-01 3.0480712359502959e+00 -1.2466198427358317e+00 -3.2476634974008292e+00 -2.2813857170713852e+00 -3.5398473383894888e+00 5.4963248264519871e-01 2.1032034098543484e-02 -5.3360632513817663e-01 4.3182275443202780e+00 -2.0094454532391786e+00 -4.2569341982785893e+00 -1.3280135093792542e+00 1.9566304124409242e+00 -2.5169212354454173e+00 4.6582846688446800e-01 -1.4203078550617954e-01 1.5758146163815467e+00 -1.7891726436107089e+00 -8.8500051146530034e-02 -1.7527318391858513e+00 -2.0666463101564229e+01 8.4006564829046371e-01 -3.1343173678953749e+00 3.3515934694417369e+00 -1.3422750574836964e+01 -3.8719639707101783e-01 -3.9514061853196591e-01 1.8148822274845772e-01 -4.8771597342206485e-02 2.7961869637301162e+00 2.0077971636281977e+00 
      </Row>
      <Row Index="21">
        -2.0203540248335616e-01 -3.2468154698087801e+00 -5.2188379018897422e+00 -6.2085951605425638e-01 -2.6303012099064027e-01 1.8858930526695872e-01 -6.9475804865841155e+00 -1.1084106573825693e+01 -3.5402307867025229e-01 1.2929617697386742e-01 -1.6422925631312459e+00 7.8648600545731853e+00 7.9566375803676692e+00 9.0552152839247291e-01 1.4849130390693672e+00 1.8898864709333196e-01 2.7471777288120620e+00 -1.7284920574299509e+01 9.6439879966361559e+00 -9.9211813677512112e-02 -5.3501186424900460e-01 1.5036906823048483e+01 3.3850969198714438e+00 -2.1854650659681010e+00 1.7177423256690856e+00 4.6025590221763224e-01 6.4041525858491841e+00 3.2641969357808809e+00 -8.7358999132092041e+00 -8.3265086041561437e-02 8.5784197887227032e-01 -5.7015789733100526e+00 6.5938978536059007e+00 -1.7648163336266354e+00 -9.4208679101232429e-01 7.3214695017563336e-01 -9.5471536480026700e+00 -6.5466015737599186e+00 -1.2041456379343792e+01 3.7310960225875789e-01 -2.4999896382614248e+00 -5.4325922588099296e+00 -1.4633635277666926e+01 -5.8162924929039344e+00 -1.7416693517273113e-01 7.5122121493468774e-01 6.3618542512033507e+00 3.4737080008422376e+00 8.5589603439039212e+00 -2.8742874212506248e-01 -1.5263991411274218e+00 2.8108791778313686e+00 8.7744433646358146e+00 -8.6183417656734633e+00 -1.4172128445286751e+00 1.4453600582191339e+00 -5.6654940113074543e+00 1.5236326536147354e+01 2.5300101576735354e+00 -4.6872482636020962e-01 3.6864569814424151e+00 6.0326164997743579e+00 -1.2686053892569205e+01 3.4538682265010854e+00 2.4335933339476199e+00 4.5457526926323971e-01 1.2969456464788747e+00 -3.1397780488169555e+00 -8.7281999231493168e-01 -9.8945624289807732e-01 -7.3613510568352609e+00 
      </Row>
      <Row Index="22">
        -1.5187127018184454e-01 -1.3067492541279329e+00 -2.6626918416353078e+00 -1.7909095237404513e+00 2.1309745451074757e-01 3.8680238930461908e-02 -3.6614503273543164e-01 2.0780966519951818e+00 -3.2152619463256258e+00 1.3831133431239029e-01 8.7886349900238692e-01 1.9920819257555813e+00 1.5149190646940866e+01 1.0463922013004554e+00 -4.5914873565504782e-01 8.4267464750964827e-01 4.8425613497269637e+00 4.2046874236661456e+00 3.6464438061278770e+00 -4.5552882729047833e-01 1.0463833230882011e+00 3.3850969207519057e+00 1.3122755726254127e+01 -5.8396597250343536e+00 -7.2340130706780426e-01 -3.0858532431071062e-02 -5.1311726694349629e+00 1.7000026679172968e+00 -1.5728064787872068e+01 -4.9425930862870088e-01 -9.3793431515837467e-01 8.9699646223357266e-01 3.6123523181600758e-01 -1.8517233303452707e+00 1.6137598396267396e+00 -4.9045945253879941e-01 1.1889463433870622e+00 1.3052304696963200e+00 -9.8834201918114957e+00 6.3081821333102828e-01 -1.7229941441822746e-01 -1.6078572565059255e+00 -3.7219866661214134e+00 -8.9548040794423116e+00 -1.1846488674070352e+00 1.9445695997871093e+00 1.6664773790359020e+00 -1.0168392303005865e+01 1.3559764653552223e+01 -3.8427071271208280e-01 -9.7771839511654313e-01 3.0923619488363645e+00 4.3767720979040137e+00 -1.1630008991811652e+01 -1.3435535920939998e+00 1.5969237118230830e+00 3.8218173370529274e-01 -1.1177126870089493e+01 8.5964538182610521e+00 -3.1593264189718639e-02 -2.2680635565470619e+00 -3.7860839494802889e-01 -4.6926403116316546e+00 9.0970739436255741e+00 -2.3410480424739397e+00 -4.0759348946777063e-01 -4.2395250281271618e-01 6.4589981034250865e-01 -1.0556163672232191e+00 -4.5860432230026538e-01 -2.0089977927856317e+00 
      </Row>
      <Row Index="23">
        2.6220419650999854e-01 1.4172383733488747e-01 2.3333281064305176e+00 1.6251106607145713e+00 -2.1037678479909860e-01 1.3445375544859051e-01 3.2146641335406549e+00 1.2647427843656374e+00 1.9709205497672997e+00 -2.1393012727077970e-01 -7.9044653728819259e-01 -1.3012346923189808e+00 -4.3440964797999158e+00 -1.5722019440752484e+00 6.0918016988279622e-01 -4.1489781710911409e+00 -7.3311887857917668e-01 1.5626575093775297e+00 -1.8005350947446459e+00 9.8249834951376702e-01 -1.5674951175887419e+00 -2.1854650677645058e+00 -5.8396597253543945e+00 1.2466580169674540e+01 9.9561611456973798e-01 -1.1484020106901913e+00 2.9269980056287848e-01 1.2484659596625436e+00 1.1679087390977863e+01 6.2822949684376883e-01 4.7085857535195501e+00 4.8986118012063884e-01 1.0285171756885489e+00 -6.5517136156603129e-01 -2.9023183490132594e+00 2.4770571902777743e+00 4.8164681552002060e+00 1.8215276182153040e+00 6.4889801755648726e+00 -2.8739279158838826e-01 7.1681315634794285e-01 -4.5637139961584144e-01 1.5860063016879593e+00 1.3782882816910618e+01 9.2036924995951919e-01 -2.5977788320403148e+00 -3.5095494763409518e+00 3.4917134566807650e+00 -6.8601832155342493e+00 9.0275603091838608e-01 4.6046895309450164e+00 -1.9767676912937280e+00 -3.0153414910100262e+00 1.1553987900094402e+01 1.0529915612330607e+00 -5.6180290919276210e-01 3.7517674870486459e+00 3.1910007888818117e+00 -1.9742546772157290e+00 9.0134909052131862e-01 6.3389103048070812e+00 4.2309200159266069e-01 2.4407419038596068e+00 -1.2181880697193231e+01 2.4131555588074862e+00 1.8858237868604897e+00 -4.1371105675873243e-01 1.9765871572732321e-01 8.4249495776513639e-01 -9.2466684148640788e-02 -6.6630422726275440e-01 
      </Row>
      <Row Index="24">
        7.9128242999473797e-01 1.3383189225207381e-01 -2.7097954466163898e-01 7.6852104651178654e-01 -8.7136119461528594e-01 1.3494169004086087e-01 -1.2663515601004818e+00 -1.0564308060514378e+00 1.2361716299850585e+00 -2.6889613401667556e-01 -5.6944469138610767e+00 1.6337930850810700e+00 -2.4940617779505558e+00 -2.1862562937875749e+00 3.7375731483491808e+00 -8.1134692858530011e-01 -5.5053877149676858e+00 1.3500127549873819e-01 5.8210799082332230e+00 1.9225613997001706e-02 -4.6120589193691659e+00 1.7177423254648128e+00 -7.2340130742033892e-01 9.9561611518726101e-01 5.2469969703075092e+00 4.6733181289811077e-01 -1.1808175029914001e+00 3.0198180844882301e+00 7.0798354403160912e+00 4.9636331807443185e-01 3.4682976340213685e+00 -1.5020718660917595e-01 -8.1620412915073604e-01 1.2824545778935970e+00 -7.0538755249569958e+00 9.4231188720155878e-01 -1.9027749691946343e+00 -4.2483125175788095e-01 5.1661305946524347e+00 -2.5354469132157100e+00 -3.7445893207386165e+00 3.9023862927868547e-01 -2.1556383395861456e-01 2.7425643045143269e+00 4.2449022169077697e+00 -2.9433932800627688e-01 -1.0658843670261615e+00 2.5749341941674455e+00 -2.4804596146885922e+00 5.1641961586459806e-01 -1.0807501574135383e+00 9.9406493159483200e-01 -4.3815282528064792e-01 1.6223387022868956e+00 2.2194987879513071e+00 4.8854861468882205e-01 -2.7536880876509722e+00 4.4387050037097833e+00 1.9082678835919098e+00 -1.3196872737129446e+00 1.1049454044121545e+01 -1.1627479636508778e-01 3.3756280306729414e-01 -2.5711424929378079e+00 1.3981003176320458e+01 8.9899424333141442e-01 4.3168607760702732e-01 -3.6655023350540006e-01 4.2834216334310299e-01 2.5072579342968861e+00 4.5158391585433205e-01 
      </Row>
      <Row Index="25">
        1.1924773017181867e-01 3.2988702896405364e-01 -5.6979070223489003e-01 2.7930267275918519e-02 2.7160873873877212e-01 3.6826826509254795e-01 2.8270954460350595e-01 1.6623935495679376e-01 2.3344101162234665e+00 -5.3771304103146733e-02 -1.0429327650255296e+00 3.9320171050731112e-01 -5.2341019761837515e-01 -2.2992586996999971e+00 -1.1417076884299041e-01 -4.2289848567600519e-01 5.7814289368208023e+00 -2.5988536725924023e+00 -5.2102635501591408e+00 5.0133730385869979e-01 4.1493590106856923e-02 4.6025590259260163e-01 -3.0858532235242819e-02 -1.1484020108292781e+00 4.6733181281045838e-01 2.3586226852162842e+00 2.4060790799401079e+00 -2.1162461946711653e+00 1.0797784874541261e+01 4.0881727829167080e-01 -2.2581281315167661e+00 -6.8983295155764779e-01 1.2360349577423582e+00 1.2918478123314936e+00 5.3223966913009335e-01 7.8422987442117775e-01 1.5338612530475380e+00 -8.2533072892844728e-01 4.4103248500901415e+00 6.9729397371554314e-03 -4.2701439031169341e-01 2.5751089706889096e-01 -1.6594243283557404e+00 2.2846261861057426e-02 4.6889051278432831e-01 -9.9320627551093180e-02 -1.2599216658972043e+00 3.4426893922093695e+00 2.1000181739429964e+00 9.9612950156658525e-02 -1.3336870650134893e+00 -3.0124328889700913e-01 1.5210512478576406e+00 -1.6116779837486255e+00 1.0342384820769293e+00 1.2915834964727302e+00 8.6015690226906671e-01 2.3133723583559522e+00 2.8205141863739129e+00 -2.8797367785027961e-01 -9.8658320312681203e-01 2.9359842456931862e-01 -1.1627988919896051e+00 2.0116415264361791e+00 1.0696760835829836e-01 1.3133798931680563e+00 -1.0419645197905725e-01 -5.9404867526444805e-02 6.1283122239282650e-01 -8.5741945229784955e-01 1.1424003898068893e+00 
      </Row>
      <Row Index="26">
        -8.6729868646877861e-01 -4.1884314706257442e-01 2.1765065004262283e+00 8.5163357724650055e+00 -7.8192360274575989e-04 -1.2097099797339084e-02 -4.1437850479587553e+01 -5.8657842991559534e+01 1.3926380820514964e+01 3.1071465380669738e-01 1.4164180602562411e+00 6.8434275290002304e+00 -1.5024780337405218e+01 1.2171694205234964e+01 3.5496873708243493e-01 5.8790960908693926e+00 -3.1003567988819043e+01 -6.7186007931066825e+01 7.8179157005433808e+00 -1.9769091277202959e+00 1.1203662262082150e+00 6.4041525842264946e+00 -5.1311726696586675e+00 2.9269980054695455e-01 -1.1808175033108779e+00 2.4060790801344183e+00 9.2892774609155865e+01 1.3273056843659173e+01 3.1406893964031440e+01 -2.2013405737598362e+00 -6.3589355360327626e-01 -3.4290990235157479e+00 -6.6178586260021408e+00 8.1457869916905228e+00 4.6788188846219283e+00 -1.1126848797686906e+00 -8.9807333219160398e+01 -1.5759666307654474e+01 9.4832305292868107e+00 2.3748752470618362e+00 -1.1129823577661957e+00 -5.2521522321634482e+00 1.0835932746744191e+01 2.4579704231066830e+00 -3.0213930024995284e+00 -1.2011325776416530e+00 5.0128749589222288e+01 -3.5983166129175039e+00 4.4123646156390194e+01 -1.9502858360285709e+00 -3.2305671865316934e+00 2.1060677898719105e-01 -7.8914425716873708e+00 2.6473414031592419e+01 -2.9434662952516906e+00 -1.4041099572886604e+00 -3.7594277017653276e+01 7.4306763532183140e+01 3.1131249074910844e+01 -6.3035635177579419e-01 -3.5240035701246768e+00 3.8100174181751791e+00 8.8477753183826042e+00 -1.9347680055895808e+01 -2.5066650302439086e+00 -2.5606689163390532e+00 1.1865443966456567e+01 -1.4124275516104460e+01 8.9704106656897917e-02 -1.1426525622528398e+00 -4.8464414708645016e+00 
      </Row>
      <Row Index="27">
        -1.4429253522830932e-01 -7.5525133470480910e-01 -1.3059963601471907e+00 6.2391875134664030e+00 -1.7534924426092746e+00 2.2000496859538732e-01 -9.1283961840955783e+00 -4.9028918641239159e+01 -3.0615086712759876e-01 -1.1636789830077543e-01 -5.5923932051166503e+00 -7.1024443611172714e+00 -1.1452153316706529e+01 4.8614067750743040e+00 1.3678037416217761e+00 -8.2284899184237048e-01 -2.2539627204814792e+01 -1.5098563551927921e+01 4.9584672264329811e+01 1.3004733940185167e+00 -4.5219742428779535e+00 3.2641969340813404e+00 1.7000026677735605e+00 1.2484659596488639e+00 3.0198180840512094e+00 -2.1162461944304063e+00 1.3273056842789728e+01 8.6694320945432167e+01 -4.2377349943117622e+01 4.4925635676509024e-01 3.5889333661697282e+00 1.4690624837139539e+00 -6.4688691280940365e+00 5.1292026767053862e+00 -4.7485588591981855e+00 1.0673235206958349e+00 -4.6861028404797317e+01 -2.4244476931107670e+01 -1.5103778743419904e+01 2.0202696241138236e+00 -3.2694315420699094e+00 4.8482522851829453e+00 6.9211208033156950e+00 4.6784251247890687e+00 1.5510399413998337e+00 2.0093665668090641e+00 3.2371564435102606e+01 -7.7984852285240791e+00 3.0640111873264683e+01 1.2376296839923731e+00 2.2022359322803853e-01 5.7697189149100208e+00 -4.3695516358039352e+00 1.4642342252349479e+01 -1.1309597046667255e+00 1.5167162464221453e+00 -7.5662469063779163e+00 5.7500560669595338e+01 2.5645629680722266e+01 1.3957189287598977e+00 1.1579290279965097e+01 -2.9651511825899539e+00 7.7949111168639345e+00 -1.0917864376106429e+01 6.7468734798839654e+00 5.1616139050582532e-01 5.5768228625533292e+00 -1.0246337525004027e+01 -3.4981433894161458e+00 -4.0458360060004406e+00 -4.0182998115259485e+00 
      </Row>
      <Row Index="28">
        9.0230860906893939e-01 5.0402891826132645e+00 7.6968224797226412e+00 3.5111564213968904e+00 2.6493295340440497e+00 2.3741352871896453e+00 2.0543407988048784e+01 -3.1042679394862489e+00 1.2207897996443330e+02 -4.9144518402903881e-01 7.6682004272115023e-03 1.8600296088540631e+00 -2.0130391609028720e+01 -5.9771292771936473e+00 3.1144928826281154e-01 6.0570293314493853e+00 1.5142944747278761e+01 -1.7613881405408705e+01 1.9121418525099216e+01 -3.2466697077589313e-01 2.6595566565628523e+00 -8.7358999128565529e+00 -1.5728064786721006e+01 1.1679087390043128e+01 7.0798354397805978e+00 1.0797784875398797e+01 3.1406893958943499e+01 -4.2377349946175002e+01 5.5465066011681961e+02 6.9242557019293116e-01 -3.5396589152864011e+00 3.6601667986879511e+00 -3.2243401834956167e+00 4.0862405442969099e+00 8.9471774663007011e+00 4.8727002090112048e+00 2.8513897703452965e+01 -5.6530191716659779e+00 2.3899240416088438e+02 -3.4808569262129270e+00 1.2782395848978263e+00 7.8673478039831046e-02 1.8551380161522417e+01 2.4143008571493215e+01 2.1718325709527448e+00 -9.7012570989097640e+00 -2.4418600430625261e+01 4.2312932080327819e+01 -1.5988895808225274e+02 2.7929946745415712e-02 -9.5498002981904584e-02 -7.6607144517775971e+00 -1.1827256186081424e+01 2.6705589311505946e+01 1.4307399465228421e+01 -2.0222707791994861e+00 1.6029423436247416e+01 1.6003139367101497e+01 5.0830590680776510e+01 -2.2607362133708517e+00 -6.2412909934962650e+00 -2.0227210628130736e+00 1.6536538822023910e+01 -2.1004765923120566e+01 7.4797150628982862e+00 -7.5330663313514890e-01 -1.5068618570280972e+00 -6.1314945835253321e-01 3.9407752820350609e+01 3.4397468611445241e+00 -1.6706923774016296e+01 
      </Row>
      <Row Index="29">
        2.3739033233051332e-01 1.3872530756842494e-01 -2.1309394532529780e-01 7.9222306719975322e-02 -2.9129293961620339e-02 8.0125968729051422e-02 8.5899735991303316e-01 1.7137824832682895e+00 -3.7892452514850561e-01 -1.9702554371321446e-01 -1.6133542906851881e+00 -4.8964889951849955e-01 -9.1992552200392197e-01 -7.7250820414637289e-01 1.4449565203193698e-01 -9.9209392523977513e-01 -2.7490740717627205e-01 2.7196708083332357e+00 -1.8380999760616419e+00 3.1091212255638303e+00 -1.5305782561349204e+00 -8.3265086353573992e-02 -4.9425930874329538e-01 6.2822949696016139e-01 4.9636331806106160e-01 4.0881727828368941e-01 -2.2013405737518141e+00 4.4925635685629572e-01 6.9242557123536130e-01 2.2581454982576923e+00 2.6432499063947978e+00 4.7942108073189917e-02 6.7703160242113825e-01 7.9451982436306384e-02 -1.9669121261943068e+00 5.2296108136222985e-01 1.6313869309043345e+00 1.1364013915434032e+00 7.3428283846425835e-01 1.2923219680978635e+00 3.4799340926452094e-02 1.5945065211783693e-01 -8.8840144910583163e-01 1.0276083620153449e+00 -1.1264407773563058e-01 -2.4282270263376696e-01 -1.5230268253903265e+00 4.0779122152076264e-01 -1.6213518633988766e+00 1.5896982587609130e+00 4.1744508416346351e+00 -6.1538438531851980e-02 4.1346697946775102e-01 -3.2645743981582065e-01 1.8727259692056819e-01 3.6617842314070348e-01 2.1845190648745150e-01 -9.0546207018146774e-01 -3.2913604309931488e-01 2.1548848579218682e+00 6.1874682202615787e+00 -1.3550526106890298e-01 -4.6319876921267966e-01 1.5087021157820901e-01 -1.0510451593052106e-01 6.8064270669137139e-01 -2.4051976427780714e-01 4.2326627756487523e-01 9.5031492263026290e-02 -3.7863172608800029e+00 -2.0505680483207924e+00 
      </Row>
      <Row Index="30">
        1.5923005351502599e+00 -1.8984952052571487e+00 -7.3822720976181699e-02 -1.7697143760564416e-01 -8.7247873777844909e-01 -5.2807046828146298e-01 7.3953772024140108e-01 -1.5114237435639097e+00 -3.6201588054318563e+00 -1.2060268127387364e-01 -5.2780910213230712e+00 -6.0011122154284635e-01 -1.9493042493281791e+00 6.2974072154306242e+00 2.1754911692074614e+00 1.6322006306922674e+00 -4.4079017420549462e+00 6.5429353381039164e+00 1.5033551922078914e+00 4.9911894972167055e+00 -9.4097198709168168e+00 8.5784197559794961e-01 -9.3793431791868898e-01 4.7085857570741512e+00 3.4682976355924926e+00 -2.2581281318945372e+00 -6.3589355159484739e-01 3.5889333694372567e+00 -3.5396589034360204e+00 2.6432499068950452e+00 3.1521987872917816e+01 2.2390836537976555e+00 2.9906090349837768e+00 -7.3369440595804098e+00 -1.2428501417301320e+01 5.7836583371057487e-02 -1.9152858192877914e-01 2.6167649890845115e+00 -4.7198432994652793e+00 5.7160617639566809e+00 2.4216704185070381e+00 -1.7534388262104446e+00 1.8428467472921284e-01 -1.9002080718109262e+00 -1.1609895603479508e+00 -3.8794147686096386e-01 -1.2563708879881257e+00 -4.5989083088830407e+00 5.6545292509460232e+00 4.5008823775163052e+00 2.4832805936856673e+01 1.0115932838192454e+00 4.2434450894135800e-01 -3.4860751263418672e+00 -6.5747171099764019e+00 -7.8943831316368263e-01 -8.0041327379468141e-01 -3.3961508729211261e+00 -6.5981020594327422e-01 9.6800433610019976e+00 3.7436645828634809e+01 9.7779130791837821e-01 -2.1073188692272105e-01 -4.1140057252084006e+00 7.4928454765172035e+00 -2.0988832911673319e+00 -3.5232433770635563e-03 6.3966981116192478e-02 -7.6572022486918967e-01 -6.5356057776486267e+00 -1.8964389978114951e+01 
      </Row>
      <Row Index="31">
        4.2870662539301296e-01 1.0797519291051287e+00 3.7508683374103100e+00 2.3107361158561091e-01 8.7412549664315442e-02 -1.0073308886414978e-01 6.7068918731021654e-01 4.4938184181876579e+00 -3.2311217545621389e+00 8.7994641893092584e-02 -4.3190640497668475e-01 -3.3126631285942381e+00 -3.5757001538268014e+00 4.0440665937636311e-01 6.2884990167864530e-02 4.9610468389199625e-01 -5.7377919901447854e+00 1.1139305293267135e+01 1.7420699233816777e+00 2.8870063974339399e-01 -1.1390810488190000e+00 -5.7015789733363960e+00 8.9699646232475061e-01 4.8986117970451304e-01 -1.5020718619623194e-01 -6.8983295141676848e-01 -3.4290990241037065e+00 1.4690624833551169e+00 3.6601668007347712e+00 4.7942108089571889e-02 2.2390836531908844e+00 7.3970576073853964e+00 -2.1407411813576402e+00 -1.7451289881168885e+00 -1.8817438410171439e-01 -6.1347299786445231e-01 -5.3839534124913406e+00 8.5176989710601703e+00 1.1404631250332131e+00 2.4084312811401748e-01 8.3029502611257566e-01 1.2228970601151146e+00 1.0551787379919411e+01 7.5542440321817672e-01 3.4102804428741540e-01 6.9633594737588989e-01 1.7151267244477841e+00 -8.6798602536585090e+00 -4.1321496283554211e+00 4.4378901562732148e-01 2.6424775683396673e+00 1.0292607700332383e+00 -4.7287260965069287e+00 1.9900579091635930e+00 -4.3073595572164947e-02 -9.0730691185108903e-02 -2.4335970965388571e+00 -8.4983756218325013e+00 -1.1437747325740499e+00 4.0809263080078539e-01 3.0274919976729464e+00 -3.0939973704357469e+00 8.6811443095835408e+00 -2.0993949006409842e+00 5.8918501545561830e-01 -6.1406768656527966e-01 -1.0256210753852554e-01 1.4799220125515125e+00 2.7584522009190759e-02 -9.6123251062485071e-01 4.8858216990940848e+00 
      </Row>
      <Row Index="32">
        2.6299471540022612e-01 -2.0395192564296849e+00 -6.2532460966341432e+00 -2.1871557304506872e+00 7.6904061904002941e-01 -2.2781197269669207e-02 7.1195500389268318e+00 8.9720409266053593e+00 -8.1486923956629198e-01 5.4390708361706341e-02 1.9463253086915344e+00 1.7856247834934038e+00 1.0964918222419101e+01 -1.7709471084860340e+00 -1.8881606517232257e+00 -1.8695529255719734e+00 1.9005457341730335e+01 2.9692098475171775e+00 -2.3113622797175140e+00 1.0023544972182787e+00 1.7338942505131225e+00 6.5938978531726207e+00 3.6123523089668197e-01 1.0285171774563204e+00 -8.1620412920537988e-01 1.2360349571873890e+00 -6.6178586242950246e+00 -6.4688691266984506e+00 -3.2243401860746417e+00 6.7703160262019102e-01 2.9906090384583353e+00 -2.1407411809641874e+00 2.0705396362279146e+01 -5.1080836935221914e+00 6.0796725084615200e-01 1.1008937623828043e+00 1.1271795317337453e+01 6.2003972163132559e+00 -8.0168460711520346e+00 8.7078458281696736e-01 2.4126209885174510e+00 -3.1915604787698615e+00 -2.4008272955087193e+01 -3.9868607785148225e+00 -1.5941889695217351e+00 -7.8567066398237628e-02 -1.2098491662850043e+01 5.3708833683030788e-01 1.9916898888823198e-03 6.6021153530382082e-01 5.5332724434991327e+00 -7.6451338012830028e-01 1.5140971834545535e+01 -1.7034935993710945e+01 -1.0086532686461736e+00 1.4346496417864110e+00 1.1307594872697218e+00 -7.8656133311583076e+00 -4.3127545335179169e+00 1.6040057004173820e+00 4.6030282295556635e-01 5.3949870628695695e+00 -1.9880614203106077e+01 7.3944438208996246e+00 -6.1550872701259216e+00 1.6627904485002820e+00 -2.5196862412051853e+00 1.7064462689093109e+00 -7.4525421710282536e-03 -1.5646965238383608e+00 -1.1787817905969616e+01 
      </Row>
      <Row Index="33">
        -1.3350746452279005e-01 2.7202798128491423e+00 1.4759118359963850e+00 2.8383406613466793e+00 -3.8777394655715902e-01 3.9027802554084801e-01 -8.3853189381026709e+00 -7.4575902822055298e+00 2.9006525689351292e+00 -2.3735076459735072e-01 -2.1178622346289728e+00 -5.3025325595081085e-01 -7.0281457603688295e+00 -1.9953244483623074e+00 1.5167854801412979e+00 -2.2962052461704445e+00 -1.3606165697644485e+01 -8.4789140733090171e+00 -2.7860160297973380e-01 -4.1361911232527093e-01 -2.3349108546971920e-02 -1.7648163333357587e+00 -1.8517233291823914e+00 -6.5517136335343629e-01 1.2824545769101339e+00 1.2918478127423647e+00 8.1457869903760241e+00 5.1292026752380764e+00 4.0862405416723959e+00 7.9451982080569028e-02 -7.3369440632580565e+00 -1.7451289883960190e+00 -5.1080836930810278e+00 9.8237315927920328e+00 1.4486662221823055e+00 -2.8462482695020813e-01 -1.4498615287561995e+01 -4.7836856925531270e+00 7.2122573001817214e-01 -8.7517434565938457e-01 -2.0404251927651016e+00 3.2408637968542942e+00 5.0467080931766048e+00 6.8635280630310662e+00 3.2352828499716222e+00 -5.1638975880404836e-01 9.7096193618936759e+00 5.9263239706035655e+00 6.0467558740924687e-02 -5.7387621445892167e-01 -7.4263988680924502e+00 -8.2850644994317191e-01 -4.0621304041910324e+00 1.4206144349466323e+01 4.8722279459016669e+00 -2.6376220693235974e-01 -5.9794431393819316e+00 1.6351218539275969e+01 3.5794614895852508e+00 -1.8431704919113359e+00 -4.9446940589812653e+00 -2.3664805310726647e+00 5.5562259588861878e+00 -3.5639527329973095e+00 5.2294606751559813e+00 1.8739358065795426e+00 2.3872408117176045e+00 -1.9386051406520706e+00 4.3268039874098629e-01 1.0500700951235213e+00 6.7903281085762943e+00 
      </Row>
      <Row Index="34">
        -1.5950295622991062e+00 6.7032639390760806e-01 -5.1740702854624487e-01 -8.9990620990901293e-01 1.7263683853336544e+00 2.4951705183248407e-02 7.2367727431814899e-01 -2.1895095564819798e+00 1.6275947592119451e+00 5.4763443770958720e-01 8.6650758890029902e+00 -1.8043382973232269e-01 4.4953665686394402e+00 2.6016287730090548e+00 -4.6904083406621115e+00 1.5053459613651370e+00 5.5091485639590587e+00 -7.4519827272980432e+00 1.0446797328677349e-01 -1.3554301171043586e+00 8.9921922611255169e+00 -9.4208678986692007e-01 1.6137598410101646e+00 -2.9023183508819095e+00 -7.0538755254876335e+00 5.3223966912406873e-01 4.6788188830700363e+00 -4.7485588609233105e+00 8.9471774612788124e+00 -1.9669121263277676e+00 -1.2428501415120557e+01 -1.8817438370839534e-01 6.0796725199043067e-01 1.4486662197277527e+00 1.8370827512883672e+01 -1.1530399409158973e+00 -9.0614201377607861e-01 -2.2868973100079271e+00 1.9971970176494835e-01 4.3340764335939381e+00 5.5584223049284143e+00 -5.0782951861825132e-02 -1.3221447443521086e+00 -2.0924950465571892e+00 -4.4776864483540653e+00 3.2179917241085121e-01 5.1474320480911846e+00 -1.0946809111778517e+00 6.3832251477306272e+00 -1.0235420444416830e+00 -4.5234939301269801e+00 -5.8009188320380378e-01 1.3673614365367648e+00 -3.8593220748768564e-01 2.9950879669004520e+00 -4.2046151899220630e-01 3.5924188472091143e+00 4.6040250974321850e-02 3.3912886077834479e+00 3.1728014455688025e-01 -2.3726888196085355e+01 8.2999091902156152e-03 -1.4504502184722643e+00 4.6246395538109173e+00 -2.0843152762675487e+01 -8.5078592297434774e-01 -7.5477280324844020e-02 -5.7714148510857566e-01 3.7731113587100151e-01 -5.0094171250150090e+00 3.4577625566440338e+00 
      </Row>
      <Row Index="35">
        2.1765974925068818e-01 1.1276714502195606e-01 -6.3824543040648196e-01 4.0489718610734615e-01 1.4652505224438403e-01 3.3216639994297537e-01 8.2989429789265401e-01 9.4286790213344496e-01 2.1694945034627775e+00 -1.1590082086873543e-01 -1.0160541820726348e+00 -3.3274542989343137e-01 4.8811611035468161e-02 -2.0865880190062169e+00 1.6517929479917448e-01 -1.7514931089402785e+00 3.5632533031408764e+00 -4.8121791060894764e-01 2.0038858888019444e+00 8.3372572035610459e-01 -7.6894722420305972e-01 7.3214694999746199e-01 -4.9045945254175827e-01 2.4770571903442566e+00 9.4231188696992241e-01 7.8422987440291314e-01 -1.1126848798441489e+00 1.0673235205893690e+00 4.8727002083007562e+00 5.2296108138552599e-01 5.7836583210530410e-02 -6.1347299783828591e-01 1.1008937624391240e+00 -2.8462482694453733e-01 -1.1530399405957370e+00 2.3968442916093626e+00 3.9034301646217112e-01 3.1738213919140090e-01 7.7351229624713618e+00 -1.7363385291118388e-02 -3.6013265453183818e-01 4.4069370878229552e-01 -2.4301183657417029e+00 3.4304415592842625e+00 6.2549307635650098e-01 -6.4164929600245069e-01 -2.5490374999501708e-01 2.1720558624957569e+00 -1.3913764708456107e+00 4.3836903266511851e-01 4.6264544744745251e-01 -1.2192523624995824e-01 1.4453391696556204e+00 -7.4961437861245095e-01 6.7200197053792199e-01 1.5929228123467010e+00 2.6041850016407331e-01 2.0702861537948518e+00 3.8701697721877641e+00 1.4048432474733480e-01 2.0537142552253718e+00 4.0027184419699136e-01 -1.5531104036475991e+00 -1.6225637418033012e+00 8.3847324911708576e-01 1.5830886694174147e+00 -2.1084063353494137e-01 8.4804395068871025e-02 4.3603206854154558e-01 -9.2619369714809552e-01 1.0105461158957851e-01 
      </Row>
      <Row Index="36">
        -2.7656159220116394e-01 -6.2946244482274238e-01 -4.7411530350754845e+00 -1.7148862212997194e+01 9.8677104339864785e-01 -3.7060544030785536e-01 8.4248120346279890e+01 8.0995541843513109e+01 -8.7378500393785998e+00 -2.7832492959634259e-01 9.1002575789015161e-01 1.8105024162675036e+00 2.8483827277984687e+01 -1.4802759406773786e+01 -1.5249334981451064e+00 -1.7791974644210953e+00 1.1062324698279974e+02 7.6005912813711461e+01 -8.0807550916185164e+01 1.1238787466944353e+00 1.2637136072120070e+00 -9.5471536458462509e+00 1.1889463431762692e+00 4.8164681562175842e+00 -1.9027749686956381e+00 1.5338612525745976e+00 -8.9807333218520739e+01 -4.6861028405498942e+01 2.8513897695254173e+01 1.6313869308175699e+00 -1.9152857862874739e-01 -5.3839534134070552e+00 1.1271795319948978e+01 -1.4498615289015813e+01 -9.0614201594459320e-01 3.9034301638431790e-01 2.3264313626458946e+02 8.2119280728138886e+00 5.1200559571410995e+00 -1.6021229796465888e+00 5.1635777511423528e+00 2.7518773981284994e-02 -2.4874584493445553e+01 -7.0661073414425069e+00 1.5753129801772181e+00 -4.1107764715808450e+00 -1.2831132963891568e+02 2.3271386810914482e+01 -4.8404663857474645e+01 1.3963066610017423e+00 5.2925939159854867e+00 -6.7394092011423892e+00 1.3666103972559036e+01 -3.9875499664382978e+01 3.5818441034162660e+00 -2.4097662886727429e+00 1.0821438503027630e+02 -1.0689350404328835e+02 -5.4661392456639774e+01 1.1847527523924193e+00 -1.5999774639928677e+00 3.5735412405667788e-01 -2.2398151933850656e+01 3.3199619081823464e+01 -3.4484437277544604e+00 5.2132850637388017e-01 -2.1926949718324206e+01 1.9086415031580977e+01 3.5143315719029782e+00 1.8421087478128060e+00 -4.6381447652708214e+00 
      </Row>
      <Row Index="37">
        1.0609573714005203e+00 1.2610567051908390e+00 3.4408247414692710e+00 -3.1124258251419601e+00 4.8171043917884848e-01 7.0905364340045907e-02 -1.1117434745958121e+00 5.2394280934449398e+01 -9.3948242543747256e+00 -1.8406306712528320e-01 1.3647821646130005e+00 -2.6374030815171352e+00 7.9303024369428385e+00 -4.0178825600306904e+00 -1.3083978227877360e+00 -2.9350457339476819e+00 2.7348706949827033e+00 5.6247357673376527e+01 3.2931342018694068e+00 8.6081419718696006e-01 2.2720633330536444e-01 -6.5466015729776075e+00 1.3052304698138641e+00 1.8215276177707058e+00 -4.2483125137382749e-01 -8.2533072901393112e-01 -1.5759666306967688e+01 -2.4244476931246226e+01 -5.6530191722441714e+00 1.1364013916223035e+00 2.6167649904063834e+00 8.5176989709495565e+00 6.2003972164202423e+00 -4.7836856931477190e+00 -2.2868973113214031e+00 3.1738213898208595e-01 8.2119280720733165e+00 5.1733408783493111e+01 -1.0506393512062999e+00 -1.5653809281330224e+00 2.3589923218105198e+00 -2.0153591036983443e+00 1.1741876836451013e+00 -1.1463919541080694e+00 6.8087240329145160e-01 1.2385226602423842e+00 -2.2172980503257342e+01 -2.0401905205903315e+01 -2.7854551245870880e+01 5.7699941947282885e-01 5.3388875383949319e+00 -2.6385879549323441e+00 1.1491436364010026e+00 -1.0628988455068900e+01 5.6212280525346658e-01 1.2576792094209541e+00 -1.3329573101240484e+01 -4.3655824077968298e+01 -1.5762242546642135e+01 3.5642336828842019e-01 1.3251265377514949e+00 -1.2905944442319144e+00 -3.7332196005908280e-01 5.0412248249840257e+00 -1.2851399892592401e+00 1.3977152301308402e+00 -3.3411710137229234e+00 1.1955810485311135e+01 1.0371945439529684e-02 1.3082081800669023e+00 9.2044357646574522e+00 
      </Row>
      <Row Index="38">
        7.3010992487044180e-01 4.1338287775794988e+00 3.4503712152101187e+00 2.6672855425036817e+00 1.1468211385419234e+00 1.8297753144974815e+00 1.5401399561012205e+01 -6.9045776175303573e+00 7.9942429219304984e+01 -5.3007158987288694e-01 -3.0663038972751284e+00 -1.2013428530857340e-01 -1.0913094713928331e+01 -4.2877049960445284e+00 2.7411133277975779e+00 3.3869120472487753e+00 1.3046702407681110e+01 -1.4604574112951983e+01 1.6939754358743926e+00 -3.1038867917885488e-01 -6.1213156060839591e+00 -1.2041456379121676e+01 -9.8834201906915098e+00 6.4889801745472466e+00 5.1661305938956970e+00 4.4103248506731383e+00 9.4832305248628046e+00 -1.5103778746340900e+01 2.3899240415716480e+02 7.3428283788447934e-01 -4.7198433067514625e+00 1.1404631238421514e+00 -8.0168460691469221e+00 7.2122573103119847e-01 1.9971970525907157e-01 7.7351229629188953e+00 5.1200559638823488e+00 -1.0506393496699964e+00 2.5948494054504124e+02 -3.9334570715221999e+00 6.4381755707326782e-01 6.0055702048932318e+00 1.5302486299994371e+01 2.2553191950004255e+01 7.6758968845558782e+00 -7.6256990627839309e+00 -3.0181879841699431e+00 1.8549820511902240e+01 -1.1272164340819955e+02 3.6836699312966664e-01 -4.5821668778853457e+00 -6.5017360034444689e+00 -9.1265620042228441e+00 1.0999953631260471e+01 1.1902021953419970e+01 4.4582648121048685e-01 4.1766548299610058e+00 1.1991830741260953e+01 7.9361344373056227e+01 -2.6554386022543754e+00 4.0143538397744294e-01 -4.3725873943119886e+00 1.2913195077026407e+01 -1.7193633207936731e+01 1.3650381843443988e+01 -3.3635094500438756e-01 -1.1358860748269350e+00 -2.0664490848830503e+00 2.0587144211197792e+01 3.8881113366240494e+00 -1.6471902816647672e+00 
      </Row>
      <Row Index="39">
        -7.1778951335896846e-02 -2.2375564907390810e-01 -1.1081857459518574e+00 -8.7380902400617799e-03 8.4119116239337810e-01 -6.4805237898928780e-02 4.0065892266272840e-01 -3.2208073840292002e+00 -4.9531598329645021e-01 4.0234055233210952e-01 -1.6202385745920722e-01 -3.4779811278009731e-01 4.4866968922485739e-01 1.6226492916925803e+00 -1.5090754009615672e+00 -4.7450427624639246e-02 1.3372670277777274e+00 -2.4325811429105357e+00 -3.2440860613471614e+00 4.1376207713214974e+00 -7.0761048145571515e-01 3.7310960177562436e-01 6.3081821326920817e-01 -2.8739279139052532e-01 -2.5354469130693502e+00 6.9729395052995358e-03 2.3748752467254803e+00 2.0202696243895275e+00 -3.4808569241156420e+00 1.2923219683924489e+00 5.7160617665223477e+00 2.4084312864714308e-01 8.7078458256831937e-01 -8.7517434642013003e-01 4.3340764324012699e+00 -1.7363385450803764e-02 -1.6021229789854097e+00 -1.5653809278744149e+00 -3.9334570708394501e+00 1.0438850991009991e+01 2.6926787778673145e+00 -5.2810501337603455e-02 -2.6259752627223776e+00 -1.9017562094783569e+00 -4.6860471608102605e+00 -2.7857522583144483e-02 3.9904373160342042e+00 -3.3813805709603804e+00 3.8455407142964759e+00 2.2164669283103651e+00 7.4775613809218537e+00 9.6398988096977511e-01 1.2565604443103835e+00 -2.9885188363855328e+00 -4.5435711696058405e+00 1.3693563812123560e-01 1.7132853485991779e+00 2.5748111180419642e-02 2.9546886098608938e-01 7.2858178694066984e+00 7.5349334893185427e+00 8.4147939252979254e-03 -2.0129286896755096e+00 1.4458541118431771e+00 -1.3223693040098267e+01 -1.3502397228719398e-01 5.9051602246416313e-02 -6.5479612930682185e-01 -2.4893222731803691e-01 -1.3963398031587227e+01 -7.8193256711344716e+00 
      </Row>
      <Row Index="40">
        -4.5094220244938277e-01 -2.0990409727346560e-02 -3.4497964036114581e-01 -7.3679123838487293e-01 7.1620512857875074e-01 -2.4726884913771130e-01 3.0284894164526719e+00 3.1727267780394612e+00 -6.5120582445052833e-01 1.4757813343839954e-01 4.7209669355093080e+00 -2.3419662098608001e+00 1.6727861718094346e+00 2.8908406164599345e+00 -3.1983233146724590e+00 7.4226234746123865e-01 2.5103478547674172e+00 3.8073215351409857e+00 -4.3834016632770840e+00 8.2793694788949712e-01 3.0480712356449784e+00 -2.4999896387374250e+00 -1.7229941445816621e-01 7.1681315623321984e-01 -3.7445893206206140e+00 -4.2701439042681066e-01 -1.1129823580377973e+00 -3.2694315422429838e+00 1.2782395853039645e+00 3.4799340897494813e-02 2.4216704191778775e+00 8.3029502656778775e-01 2.4126209878812404e+00 -2.0404251928714294e+00 5.5584223044793131e+00 -3.6013265473585304e-01 5.1635777512934977e+00 2.3589923222746307e+00 6.4381755704938826e-01 2.6926787775338648e+00 5.5351168989066464e+00 -5.9841030009771146e-02 -1.3156013128351560e+00 -9.9357749423382558e-01 -2.6378769749305748e+00 -3.1256491703286737e-01 -2.7793844848098370e+00 -2.2693378794649099e+00 1.0671934213160057e+00 8.8075022344068266e-01 6.7320337204354681e+00 -1.2662615240208313e+00 1.2954889848547229e+00 -2.6140324830419068e+00 -9.5514393300800027e-02 -5.0847178906507096e-01 3.1206832422279627e+00 -6.5913094794370437e+00 -6.9247019163488677e-01 3.0311587454754827e+00 -4.2007133473338083e+00 -3.9554654629752051e-03 -1.4185624357548083e+00 1.6227298644807258e+00 -1.0648248461467869e+01 -8.7003561471408464e-01 -7.3779292723230994e-01 9.0382605974478980e-01 5.5608630189433766e-02 -2.7096670809343815e+00 -3.6069909422583630e+00 
      </Row>
      <Row Index="41">
        1.8930142003236416e-01 2.1105775917832332e+00 7.4777228692190079e-01 1.2139085804374385e+00 -1.2709357442331459e-01 1.5488253079747416e-01 1.3413076452019368e-01 3.1252542480893055e+00 2.0630274399718473e+00 -7.7481852825979747e-02 -1.6505657421741819e+00 -4.4713239488784708e+00 -4.5914074279232864e+00 -1.8946555162349217e+00 2.5413263916303208e-01 -7.3532376363382213e-01 -9.4067011093469546e+00 9.9564455712926794e+00 -5.9021182990478565e+00 3.6576810863595322e-01 -1.2466198420140868e+00 -5.4325922586219590e+00 -1.6078572558871542e+00 -4.5637140066923743e-01 3.9023862893231720e-01 2.5751089728733767e-01 -5.2521522329550976e+00 4.8482522842482467e+00 7.8673477216796073e-02 1.5945065191171326e-01 -1.7534388282620101e+00 1.2228970599597280e+00 -3.1915604786661333e+00 3.2408637968837555e+00 -5.0782950869741161e-02 4.4069370872678898e-01 2.7518775017853159e-02 -2.0153591033307166e+00 6.0055702044895156e+00 -5.2810501320979669e-02 -5.9841030149551833e-02 7.1897489009710682e+00 4.2156107345344580e+00 3.3143945337902179e+00 1.7087376998956245e+00 -3.8727951901756386e-01 2.2927266292571624e+00 2.5133501586569498e+00 -1.1056144590159533e+00 4.7171403138864776e-01 -1.1737704885602236e+00 6.7380404237226976e-01 -1.3326434786129377e+00 4.9984745342981540e+00 1.5921080188247132e+00 6.1105392258502089e-02 1.5459906941727988e+00 -3.3014240897417970e+00 2.0076681841566808e+00 -6.1974754519935060e-02 2.0932190616186652e-01 -3.4673370987573415e+00 4.7151752277063288e+00 -1.7539656108796642e+00 2.1863879160269404e+00 5.8376831014881425e-01 3.0819093676131337e-01 1.1181249118040013e+00 4.0983872659376086e-01 -7.7832879075349304e-01 4.2457498279026709e+00 
      </Row>
      <Row Index="42">
        4.1121916220362298e-01 3.7235907114621227e+00 1.7703204752169995e+01 3.5323903795783060e+00 -7.1332944388145947e-01 1.2416190858386500e-01 -9.7597151941606626e+00 -9.4258326278842333e+00 -2.9275411866938157e+00 -1.1306678297814798e-01 -1.8006133383196072e+00 -4.9658101875686498e+00 -2.4627944575020592e+01 3.2637828789611802e+00 2.1532877196815008e+00 2.9843303545908952e+00 -2.4599417514531524e+01 1.4720186767596459e+00 2.4728826807681799e+00 -1.5964810724205050e+00 -3.2476634974614100e+00 -1.4633635277575650e+01 -3.7219866652380915e+00 1.5860062991115234e+00 -2.1556383275300225e-01 -1.6594243273576126e+00 1.0835932743940020e+01 6.9211208014501153e+00 1.8551380171523988e+01 -8.8840144919746500e-01 1.8428466936646026e-01 1.0551787379513833e+01 -2.4008272956482642e+01 5.0467080949513408e+00 -1.3221447439337961e+00 -2.4301183656499115e+00 -2.4874584489257330e+01 1.1741876836075562e+00 1.5302486306681772e+01 -2.6259752640521041e+00 -1.3156013146641550e+00 4.2156107352777781e+00 5.3210210110000673e+01 9.1108747229354350e+00 2.6653165173221325e+00 1.0112895133187971e-01 1.9019813226156380e+01 -3.7402135730974568e+00 -5.8118037002955134e+00 -1.2198583939598713e+00 -2.5618710761102621e+00 -1.5314012912628456e+00 -2.4264662355587639e+01 3.2203187595196233e+01 1.4111378577692246e+00 -2.5190628073699024e+00 -4.7538252048665122e+00 9.0926348102305514e+00 7.4385769732348122e+00 -2.5927163087911502e+00 1.3132641307823363e+00 -8.6926938006445482e+00 4.5308915747802196e+01 -1.5297987253801892e+01 9.5515773691852850e+00 -2.6236647649124119e+00 3.4666348177795974e+00 -1.4305930027343834e+00 3.2002853118665420e-01 3.9225804958370603e+00 2.8151304304166587e+01 
      </Row>
      <Row Index="43">
        3.5292148813350877e-01 3.4105808326230829e+00 5.2897498507797422e+00 4.5308854174264894e+00 -4.1473378672984573e-01 5.6172026977023570e-01 -1.4197937848557558e+00 -2.6290803034808334e+00 4.7437864284380566e+00 -4.8495828725579271e-01 -2.9319525048707860e+00 -3.4381731429047875e+00 -1.3416018099484518e+01 -5.0545255315956865e+00 2.1554680411844842e+00 -6.4228209113130994e+00 -1.3210399080822128e+01 -2.9020453958724701e+00 4.6719797289974849e+00 7.1537396682753585e-01 -2.2813857143675573e+00 -5.8162924946856407e+00 -8.9548040786432921e+00 1.3782882815065195e+01 2.7425643028728546e+00 2.2846262466938327e-02 2.4579704216148457e+00 4.6784251231733549e+00 2.4143008569789345e+01 1.0276083615494465e+00 -1.9002080797307594e+00 7.5542440341931627e-01 -3.9868607801578833e+00 6.8635280651505486e+00 -2.0924950419676698e+00 3.4304415592057702e+00 -7.0661073408825317e+00 -1.1463919528376181e+00 2.2553191950037615e+01 -1.9017562089901516e+00 -9.9357749406309248e-01 3.3143945350073380e+00 9.1108747241906229e+00 2.5551726779166174e+01 4.3196669957675606e+00 -4.1935357198187786e+00 6.9197339766947863e+00 1.0917898678029866e+01 -8.3955770577828162e+00 3.1130047849535802e-01 -1.9001184502903636e+00 -3.4096960697510568e+00 -8.7043744010912434e+00 2.7565890024125892e+01 6.2410816422759856e+00 -9.6867294628130218e-01 9.9236279839275143e-01 1.6089156254758453e+01 8.1772057900746784e+00 -1.3074615035664179e+00 2.5351244815821801e+00 -2.7975538253663741e+00 1.0553154140261528e+01 -1.9676537788955550e+01 8.3002275931827079e+00 3.7691309249715483e+00 1.2406079565906811e+00 -8.5411786938905099e-01 1.5953818061538756e+00 1.4398440644427080e+00 8.0670132325549364e+00 
      </Row>
      <Row Index="44">
        5.2383809772306678e-01 1.0363794381685665e+00 6.9458855393239105e-01 6.8192925115544689e-01 -9.3111233298223040e-01 1.4423328399906055e-01 -7.5501493515517382e-01 1.5980883936699399e+00 8.7569447331219408e-01 -3.3233266779723225e-01 -4.6768936966230612e+00 1.1873877110827920e+00 -3.3045143547911948e+00 -2.3979597954229757e+00 3.6090209422178248e+00 -1.1441789475479673e+00 -6.6728610485782269e+00 3.0590791536983133e+00 -2.2106143448083913e+00 -1.3176143335061314e+00 -3.5398473375787090e+00 -1.7416693503601266e-01 -1.1846488672538271e+00 9.2036924974286860e-01 4.2449022166800470e+00 4.6889051303718965e-01 -3.0213930028089919e+00 1.5510399410289608e+00 2.1718325695449607e+00 -1.1264407791528286e-01 -1.1609895631345946e+00 3.4102804375892704e-01 -1.5941889692413724e+00 3.2352828508407545e+00 -4.4776864471301279e+00 6.2549307655259612e-01 1.5753129803215593e+00 6.8087240334895682e-01 7.6758968843126780e+00 -4.6860471607475329e+00 -2.6378769751666327e+00 1.7087377001431747e+00 2.6653165155035481e+00 4.3196669963051306e+00 6.7639310255823197e+00 -5.4839391743295707e-01 -3.8824918665489321e+00 3.7891446193873075e+00 -9.9560129590395263e+00 -1.5624923991218112e-01 -4.1022404094831462e+00 1.8841734312020542e-01 -1.3438365048135879e+00 4.1436130384355661e+00 6.1518677302125075e+00 1.3439486701875564e-01 -1.9460280478454983e+00 2.3479109703513634e+00 -2.3191357160308739e+00 -3.3938351825837856e+00 4.6364109536581957e+00 -1.0493792787290945e+00 2.6812736969362714e+00 -1.9256476611812445e+00 1.5451044524050277e+01 1.0786605375064675e+00 2.3585694555661951e-01 2.3009901354646842e-01 4.8819899622284346e-01 5.4075026576138665e+00 6.1362089359495178e+00 
      </Row>
      <Row Index="45">
        1.5216950427442449e-02 -3.1753707456457381e-01 -2.6445762701160191e-01 -4.5222746183822526e-01 8.1520709555406801e-02 -2.4925930058866452e-02 -1.2714522448108898e+00 2.2240069476746349e-01 -3.2666043056220460e+00 5.6742090453465469e-02 3.4332502980929602e-01 -1.1052584663364229e-02 2.4308122974949455e+00 4.3010804756564336e-01 -4.9096385896074457e-01 8.0971148891926270e-01 5.0702006868110772e-01 9.8251739196899823e-01 5.8706311937754023e+00 -2.4867866757499676e-01 5.4963248221087646e-01 7.5122121530736319e-01 1.9445695997624526e+00 -2.5977788319199000e+00 -2.9433932774899180e-01 -9.9320627612893064e-02 -1.2011325775430617e+00 2.0093665669186773e+00 -9.7012570986589672e+00 -2.4282270255875141e-01 -3.8794147561805115e-01 6.9633594734131832e-01 -7.8567066091899562e-02 -5.1638975924847197e-01 3.2179917168303818e-01 -6.4164929599412601e-01 -4.1107764714623087e+00 1.2385226601036941e+00 -7.6256990628243919e+00 -2.7857522603806806e-02 -3.1256491709129947e-01 -3.8727951926114912e-01 1.0112895107385889e-01 -4.1935357201289616e+00 -5.4839391739876087e-01 1.8626075594503071e+00 2.8819742607076941e+00 -3.4611109194197489e+00 3.8006279413129995e+00 -2.8908131072206095e-01 -5.1546037152209734e-01 7.6144142263062875e-01 4.1024509058628400e-01 -3.8953528500433077e+00 -7.9802581871362632e-01 9.8130224435742697e-01 -1.6554115253121324e+00 -1.4744914430677456e+00 9.5359769649283788e-01 -2.3934394693441921e-01 -1.1901363584179603e+00 -2.5241494011105800e-02 -4.7328760396917358e-01 3.0323442742860891e+00 -9.5903716931168703e-01 -2.8614661566836097e-01 1.2143393844327825e-01 9.8867671694225806e-02 -7.4250294010645468e-01 1.9286278928166289e-01 4.2227448943813017e-01 
      </Row>
      <Row Index="46">
        -4.4548649571188403e-01 -2.9660793886748138e-01 2.7592631569302313e+00 1.0822330603941401e+01 4.6456079711894693e-02 4.1997522239535634e-01 -4.8426166963745501e+01 -6.1409194395941668e+01 3.7990306045531668e+00 2.9917280852500672e-01 8.4973937507983877e-03 -3.0539564425784995e+00 -1.8662655280893432e+01 1.0411771073509204e+01 4.4047490459386829e-01 2.0823021851614811e+00 -6.0998874849029789e+01 -5.5816019148084173e+01 5.0733216721001327e+01 -5.4704421193212716e-01 2.1032034590103610e-02 6.3618542496024091e+00 1.6664773793406198e+00 -3.5095494773672877e+00 -1.0658843674394256e+00 -1.2599216655380019e+00 5.0128749588334443e+01 3.2371564435151399e+01 -2.4418600424840292e+01 -1.5230268253407346e+00 -1.2563708902730812e+00 1.7151267252717441e+00 -1.2098491664809046e+01 9.7096193627251406e+00 5.1474320496765813e+00 -2.5490375001865939e-01 -1.2831132963837462e+02 -2.2172980503361458e+01 -3.0181879796032938e+00 3.9904373165058908e+00 -2.7793844846635252e+00 2.2927266299699305e+00 1.9019813229677560e+01 6.9197339765617469e+00 -3.8824918664794592e+00 2.8819742608937053e+00 1.1032551136653758e+02 -4.0329898558827892e-01 4.5320796026956685e+01 -9.8736849073059929e-01 -4.0443966829659228e+00 5.6776460968592968e+00 -1.1613914405374857e+01 3.0231984316440020e+01 -3.8957272360474993e+00 1.6354872053633200e+00 -3.3694868827583150e+01 7.9262481596764758e+01 4.4980049729503499e+01 2.7496210452796344e-01 -1.2520727645181644e+00 -1.4322908438523361e+00 1.7312613937459954e+01 -2.1609473758436508e+01 -3.7525338294940447e+00 -8.4419695323033195e-01 1.3991989081513864e+01 -1.3722966430833825e+01 -2.8899313262748323e+00 -5.1584367097228165e+00 2.7208745101990823e+00 
      </Row>
      <Row Index="47">
        -3.2201376963137424e-01 2.5509939763724709e+00 -1.6018412648259286e+00 1.0983282194673312e+00 -8.5559925600450837e-01 1.0812673052368269e+00 9.7107631684145588e+00 -1.2813056089924302e+01 1.3917538902693252e+01 -3.1553731372847771e-01 -2.7345435207974447e+00 5.1760157597209844e+00 -1.3976469368059327e+01 -5.0506482101917580e+00 1.5489243330634821e+00 -2.1332199471471336e+00 1.9700393806289867e+01 -2.3760422001677693e+01 -3.0477881899559549e+01 -4.9335862043645717e-01 -5.3360632411942577e-01 3.4737080003549572e+00 -1.0168392303088069e+01 3.4917134569253108e+00 2.5749341935725312e+00 3.4426893923866944e+00 -3.5983166130712831e+00 -7.7984852286078521e+00 4.2312932079281239e+01 4.0779122141263552e-01 -4.5989083114448919e+00 -8.6798602539111958e+00 5.3708833690472346e-01 5.9263239716510183e+00 -1.0946809092724634e+00 2.1720558627177220e+00 2.3271386810599541e+01 -2.0401905205771552e+01 1.8549820512130779e+01 -3.3813805703671722e+00 -2.2693378791599099e+00 2.5133501591042489e+00 -3.7402135742391280e+00 1.0917898679344933e+01 3.7891446191683960e+00 -3.4611109195642160e+00 -4.0329898512681694e-01 7.8352395714032355e+01 -1.3033307432131210e+01 -9.8029305619929907e-01 -5.3112497978893449e+00 -5.0943397725049913e+00 7.2700600091805256e-01 1.1567192543700834e+01 4.3166911259865266e+00 -1.2206397321285301e-01 2.4639311152582369e+01 6.7198329272604411e+01 -6.7022918377065821e+00 -2.8517377397909294e+00 -2.5959698044902000e+00 3.4089598334299804e+00 -1.4637747747894414e+00 -2.5076643296293764e+00 9.0443056419985055e+00 2.8087801395317893e+00 -9.0780484429869635e-01 -3.7114498376421166e+00 3.3753880589048753e+00 3.8776677428468980e+00 1.6041422262672385e+00 
      </Row>
      <Row Index="48">
        -1.3018110147974389e+00 -3.8399757092098241e+00 -1.9447863506889860e+00 2.5921449510641459e+00 3.7135042376711747e-01 1.4126184074477699e-01 -3.0043019316462761e+01 -4.3352382728670023e+01 -4.5671669128956523e+01 3.7267060855409673e-01 3.4245691687294304e+00 9.9468454683167096e-01 6.9712569130164184e+00 1.0752242300509238e+01 -3.1702768648519815e+00 6.5876223154387858e+00 -1.8220686357868544e+01 -4.1852932872235264e+01 4.3571071715992957e+01 2.8668171171072077e-01 4.3182275435697433e+00 8.5589603417075892e+00 1.3559764652571062e+01 -6.8601832150196147e+00 -2.4804596149023959e+00 2.1000181737318950e+00 4.4123646159110677e+01 3.0640111875271259e+01 -1.5988895807723242e+02 -1.6213518632189128e+00 5.6545292524654256e+00 -4.1321496268259583e+00 1.9916864613946927e-03 6.0467559745076005e-02 6.3832251477886386e+00 -1.3913764712496404e+00 -4.8404663862424641e+01 -2.7854551246684295e+01 -1.1272164340588108e+02 3.8455407148194154e+00 1.0671934216712076e+00 -1.1056144582765910e+00 -5.8118036920598541e+00 -8.3955770561065677e+00 -9.9560129589263759e+00 3.8006279412475550e+00 4.5320796030923773e+01 -1.3033307432144596e+01 2.5776775415053146e+02 9.1602363970023748e-02 6.1430851765332655e+00 6.9065966985316294e+00 1.8178461679183044e+00 1.3631742342521253e+01 -8.0892865446900473e+00 2.1984499738952268e+00 -6.2198633769492808e+00 3.7035022571767257e+01 9.1165298386145025e+01 2.7867197170688285e+00 -1.2504582947741589e+00 2.2896928767552329e+00 -3.4577769609531841e+00 -5.6036702140017107e+00 -1.1702364754475441e+01 -2.4999322581660586e+00 8.3550602381286438e+00 -9.6947020523281360e+00 -1.8735429381044657e+01 -4.5821189143869123e+00 -5.6429439896970708e+00 
      </Row>
      <Row Index="49">
        2.7278349559939580e-01 -1.8933666571407315e-01 -5.5758202386735434e-01 -7.9815835011573188e-02 6.4841676749824995e-03 -1.3429709898242770e-02 1.3902690270052602e+00 9.3336757992489083e-01 -2.7387010167240078e-01 -9.0741048805418556e-02 -1.6867189024899645e+00 -7.6625016543243163e-01 -7.3438875476063004e-01 4.5458257077678699e-01 3.6118595442436074e-01 -3.6834617577908446e-01 -5.1142937970681146e-01 3.2631305757645102e+00 -2.4083685682633131e+00 2.7683645338235907e+00 -2.0094454532511703e+00 -2.8742874256494844e-01 -3.8427071294137249e-01 9.0275603122125814e-01 5.1641961595565467e-01 9.9612950108662446e-02 -1.9502858360025641e+00 1.2376296842146530e+00 2.7929948207713551e-02 1.5896982587981199e+00 4.5008823773032161e+00 4.4378901566744450e-01 6.6021153499696084e-01 -5.7387621404405498e-01 -1.0235420445505417e+00 4.3836903264672233e-01 1.3963066610181052e+00 5.7699941941525168e-01 3.6836699393919048e-01 2.2164669279330314e+00 8.8075022344578335e-01 4.7171403166391457e-01 -1.2198583936396616e+00 3.1130047924809512e-01 -1.5624923962290804e-01 -2.8908131084612521e-01 -9.8736849074129651e-01 -9.8029305605111006e-01 9.1602363719232471e-02 2.2161053131110067e+00 5.4117911812065067e+00 4.6786007782235028e-01 5.7390302402868798e-01 -1.2001769797697193e+00 3.2815290974583833e-01 1.9355666251530673e-01 6.1122474022421303e-01 -2.1951581901499093e+00 -1.9275046476592195e-01 2.9945091370650978e+00 7.9964443410603598e+00 -1.4745101680227754e-01 -8.3304581542897083e-01 2.1655410740913705e-01 -2.3016755571012837e-01 1.9153516942321175e-01 -2.5727856890637846e-01 3.5648016881908168e-01 3.8374914740405969e-02 -4.6543393588684294e+00 -3.4393459287726253e+00 
      </Row>
      <Row Index="50">
        7.9254502594360332e-01 -1.4439995210217944e+00 -8.2364401200732118e-01 -7.3741686997047751e-01 1.8815058305950316e-01 -4.7583470077908885e-01 4.0010930944329175e+00 3.2928254268812225e+00 -3.7657661259959241e+00 -1.2754637180752137e-01 -1.9546752298080605e-01 -3.2923476332530868e+00 -1.9929238820986939e-01 6.2151480660675453e+00 -1.9575721062190894e+00 7.8830578962110565e-01 -5.3467194728932554e-01 1.0501441908298318e+01 -3.5014763340172976e+00 7.5578619626151307e+00 -4.2569341995227461e+00 -1.5263991439484812e+00 -9.7771839709616870e-01 4.6046895333013209e+00 -1.0807501562478592e+00 -1.3336870654147148e+00 -3.2305671853071090e+00 2.2022359536424574e-01 -9.5497993752587718e-02 4.1744508419565554e+00 2.4832805937464975e+01 2.6424775691846412e+00 5.5332724404543114e+00 -7.4263988655965445e+00 -4.5234939320349046e+00 4.6264544730524548e-01 5.2925939139565727e+00 5.3388875378048510e+00 -4.5821668726414941e+00 7.4775613786418802e+00 6.7320337200584657e+00 -1.1737704869703407e+00 -2.5618710706287970e+00 -1.9001184449471484e+00 -4.1022404072721930e+00 -5.1546037234708209e-01 -4.0443966816105785e+00 -5.3112497963765009e+00 6.1430851751838418e+00 5.4117911813485664e+00 2.7412454279001800e+01 -1.9549692762796411e-01 2.4912523538976359e+00 -6.1016739149087966e+00 -4.8823486532600189e+00 -2.1478159579464196e-01 2.5891523373851029e+00 -9.0519246591130695e+00 -1.0022675200418689e+00 1.1301004024292155e+01 2.5779320483698339e+01 7.9010170198213014e-01 -2.4420229399329489e+00 -8.8525795511542782e-01 -6.8035914020539172e+00 -1.4410039917899078e+00 -8.7416970329878474e-01 1.2743453801126263e+00 -4.8006317979421209e-01 -1.1449364625364424e+01 -1.7420486768213330e+01 
      </Row>
      <Row Index="51">
        -7.1296186768372571e-03 -9.1716932445449828e-01 -1.6088709761435922e+00 4.5203043949286759e-02 -2.3473055716159308e-01 -1.5655322623883805e-02 -3.6535697529107694e+00 -4.3470094580290066e+00 -1.1706133851980667e+00 1.2691084392879987e-01 -1.8580778417324963e+00 4.6693797187396946e-01 1.4440578414163667e+00 9.4889671999309710e-01 1.0440029938230042e+00 8.0418500625916955e-01 -7.0262574106946118e+00 -2.0362428857898873e-01 2.8130708261503514e+00 3.0957502865564573e-01 -1.3280135096300696e+00 2.8108791780158349e+00 3.0923619487146539e+00 -1.9767676909843446e+00 9.9406493176396649e-01 -3.0124328895521657e-01 2.1060677920920057e-01 5.7697189152400625e+00 -7.6607144514441359e+00 -6.1538438456247679e-02 1.0115932845911144e+00 1.0292607699504481e+00 -7.6451337988539336e-01 -8.2850645010940505e-01 -5.8009188366840048e-01 -1.2192523619328477e-01 -6.7394092012450866e+00 -2.6385879551984921e+00 -6.5017360032579266e+00 9.6398988092139437e-01 -1.2662615240204804e+00 6.7380404225714940e-01 -1.5314012916521342e+00 -3.4096960695686347e+00 1.8841734317534709e-01 7.6144142256542491e-01 5.6776460969045388e+00 -5.0943397722968129e+00 6.9065966987679559e+00 4.6786007791672368e-01 -1.9549692706238342e-01 4.0313776033176030e+00 1.5778137475865446e+00 -2.9115493261929322e+00 -7.6176394723856999e-01 4.7766340941860352e-01 -2.7733969378877172e+00 -4.8603528504811955e-01 2.2197236744262057e+00 3.6224861065231029e-01 4.1948096431525252e+00 -2.7156573051371352e-01 -1.0657352160372311e+00 9.4226779117290160e-01 1.8456564174137120e+00 -4.4695259565875101e-01 9.5305322921531554e-01 -7.7310794434957475e-01 -6.3413255241746080e-01 -2.0765723914308318e+00 -1.5127654178308514e+00 
      </Row>
      <Row Index="52">
        -5.3120043289115682e-02 -2.2991867263724828e+00 -8.5199323197587091e+00 -2.7019835177504090e+00 6.3807330214632740e-01 -8.8652296207030190e-03 5.5463195042391362e+00 7.4562024734689771e+00 -4.7244998145174577e-02 1.0511048236047205e-01 1.3565043498759941e+00 2.9683859375920036e+00 1.5260630932663616e+01 -1.6737925594763237e+00 -1.6084038759130337e+00 -1.2853300645860912e+00 1.7168319044917610e+01 2.2019908267151536e+00 -2.5033747138413673e+00 8.0650683220949571e-01 1.9566304110792405e+00 8.7744433653688390e+00 4.3767720972779216e+00 -3.0153414893944128e+00 -4.3815282492671770e-01 1.5210512472659943e+00 -7.8914425703426900e+00 -4.3695516346899979e+00 -1.1827256188905267e+01 4.1346697982642810e-01 4.2434451467513323e-01 -4.7287260964295710e+00 1.5140971835768767e+01 -4.0621304058194578e+00 1.3673614341658407e+00 1.4453391696571440e+00 1.3666103971199124e+01 1.1491436362029788e+00 -9.1265620067542557e+00 1.2565604447853487e+00 1.2954889854140532e+00 -1.3326434793663822e+00 -2.4264662356192929e+01 -8.7043744008774873e+00 -1.3438365052717964e+00 4.1024509037537982e-01 -1.1613914404541219e+01 7.2700600088390388e-01 1.8178461712918192e+00 5.7390302461243770e-01 2.4912523585347017e+00 1.5778137475726233e+00 2.0105611037114606e+01 -2.2945204405244034e+01 -8.2574051854508501e-01 2.2810440947718482e+00 1.6613333380524264e+00 -8.8991912579724950e+00 -3.1671610778487889e+00 1.3193688077053554e+00 -1.1057950164157109e+00 5.0847880564841521e+00 -1.7730164763478967e+01 1.2229974577325113e+01 -5.8497308197080482e+00 1.5580407004398826e+00 -2.2233341505655404e+00 1.3735868015019959e+00 -2.6111554232554168e-01 -2.1260583887660101e+00 -6.9114040317219487e+00 
      </Row>
      <Row Index="53">
